{"learner":{"attributes":{"scikit_learn":"{\"_estimator_type\": \"classifier\"}"},"feature_names":["earthquakes_count","max_mag","mean_mag","mean_depth","max_depth","energy_sum","mag_mean_4w","count_sum_4w","energy_sum_4w","energy_max_4w","mag_mean_8w","count_sum_8w","energy_sum_8w","energy_max_8w","mag_mean_12w","count_sum_12w","energy_sum_12w","energy_max_12w","mag_mean_24w","count_sum_24w","energy_sum_24w","energy_max_24w","mag_mean_36w","count_sum_36w","energy_sum_36w","energy_max_36w","mag_mean_48w","count_sum_48w","energy_sum_48w","energy_max_48w","mag_mean_60w","count_sum_60w","energy_sum_60w","energy_max_60w"],"feature_types":["float","float","float","float","float","float","float","float","float","float","float","float","float","float","float","float","float","float","float","float","float","float","float","float","float","float","float","float","float","float","float","float","float","float"],"gradient_booster":{"model":{"cats":{"enc":[],"feature_segments":[],"sorted_idx":[]},"gbtree_model_param":{"num_parallel_tree":"1","num_trees":"300"},"iteration_indptr":[0,1,2,3,4,5,6,7,8,9,10,11,12,13,14,15,16,17,18,19,20,21,22,23,24,25,26,27,28,29,30,31,32,33,34,35,36,37,38,39,40,41,42,43,44,45,46,47,48,49,50,51,52,53,54,55,56,57,58,59,60,61,62,63,64,65,66,67,68,69,70,71,72,73,74,75,76,77,78,79,80,81,82,83,84,85,86,87,88,89,90,91,92,93,94,95,96,97,98,99,100,101,102,103,104,105,106,107,108,109,110,111,112,113,114,115,116,117,118,119,120,121,122,123,124,125,126,127,128,129,130,131,132,133,134,135,136,137,138,139,140,141,142,143,144,145,146,147,148,149,150,151,152,153,154,155,156,157,158,159,160,161,162,163,164,165,166,167,168,169,170,171,172,173,174,175,176,177,178,179,180,181,182,183,184,185,186,187,188,189,190,191,192,193,194,195,196,197,198,199,200,201,202,203,204,205,206,207,208,209,210,211,212,213,214,215,216,217,218,219,220,221,222,223,224,225,226,227,228,229,230,231,232,233,234,235,236,237,238,239,240,241,242,243,244,245,246,247,248,249,250,251,252,253,254,255,256,257,258,259,260,261,262,263,264,265,266,267,268,269,270,271,272,273,274,275,276,277,278,279,280,281,282,283,284,285,286,287,288,289,290,291,292,293,294,295,296,297,298,299,300],"tree_info":[0,0,0,0,0,0,0,0,0,0,0,0,0,0,0,0,0,0,0,0,0,0,0,0,0,0,0,0,0,0,0,0,0,0,0,0,0,0,0,0,0,0,0,0,0,0,0,0,0,0,0,0,0,0,0,0,0,0,0,0,0,0,0,0,0,0,0,0,0,0,0,0,0,0,0,0,0,0,0,0,0,0,0,0,0,0,0,0,0,0,0,0,0,0,0,0,0,0,0,0,0,0,0,0,0,0,0,0,0,0,0,0,0,0,0,0,0,0,0,0,0,0,0,0,0,0,0,0,0,0,0,0,0,0,0,0,0,0,0,0,0,0,0,0,0,0,0,0,0,0,0,0,0,0,0,0,0,0,0,0,0,0,0,0,0,0,0,0,0,0,0,0,0,0,0,0,0,0,0,0,0,0,0,0,0,0,0,0,0,0,0,0,0,0,0,0,0,0,0,0,0,0,0,0,0,0,0,0,0,0,0,0,0,0,0,0,0,0,0,0,0,0,0,0,0,0,0,0,0,0,0,0,0,0,0,0,0,0,0,0,0,0,0,0,0,0,0,0,0,0,0,0,0,0,0,0,0,0,0,0,0,0,0,0,0,0,0,0,0,0,0,0,0,0,0,0,0,0,0,0,0,0,0,0,0,0,0,0,0,0,0,0,0,0,0,0,0,0,0,0],"trees":[{"base_weights":[3.099545E-8,-8.8844055E-1,5.8675796E-1,-1.3561035E0,-5.146767E-1,2.4861205E-1,1.2167311E0,-1.163049E0,-1.5428337E0,-9.40315E-1,-3.5796607E-1,-8.204525E-2,4.7422275E-1,8.072315E-1,1.5428605E0,-6.5654296E-1,-1.2466129E0,-1.6475441E0,-1.1762575E0,-1.2027954E0,-6.632512E-1,-5.738048E-1,-1.8843009E-1,-3.0133834E-1,8.479809E-2,1.5062043E-1,7.459267E-1,5.0079733E-1,9.5924723E-1,1.1876465E0,1.6403751E0,-7.092749E-1,3.6733443E-1,-1.2707226E0,-1.8098776E-1,-1.718854E0,-1.5313061E0,-1.3478829E0,-9.955378E-1,-1.4761529E0,-1.0769817E0,-1.294836E-1,-7.2504246E-1,-6.0300624E-1,4.7100298E-2,-3.0705336E-1,1.02749445E-1,-5.4359597E-1,-1.9452323E-1,-7.355671E-2,3.2623234E-1,-6.2070794E-2,2.7313557E-1,2.6439464E-1,8.6221E-1,3.3860356E-1,6.40033E-1,8.0016565E-1,1.0781868E0,4.414758E-1,1.2523108E0,1.4367687E0,1.7586247E0,-3.6661897E-2,6.9504785E-3,3.431895E-2,-6.135305E-3,-8.012962E-2,-6.0391087E-2,-1.37481885E-2,6.257387E-2,-8.604813E-2,2.5126306E-2,-7.8511424E-2,-5.4456275E-2,-4.955196E-2,-7.11323E-2,-5.3349193E-2,-1.997195E-2,-7.598236E-2,-4.804971E-2,-6.470107E-2,-4.675518E-2,1.673851E-2,-1.4965752E-2,-4.46553E-2,-1.9108016E-2,-3.6358487E-2,-2.5230719E-2,-3.5954209E-3,3.6889043E-2,-2.5995214E-2,-1.1836604E-2,-1.2896509E-3,1.3806045E-2,-3.9656773E-2,-1.4671336E-2,-1.4370299E-2,1.4124672E-2,-1.645241E-2,7.6743116E-4,-1.6915664E-3,1.9489711E-2,-4.7866334E-3,1.7174782E-2,1.1923293E-2,3.0250004E-2,-6.105033E-3,3.137812E-2,3.3988487E-2,6.3078515E-2,5.451677E-3,2.0032104E-2,-1.6019868E-2,3.3977386E-2,3.3066183E-2,4.2810332E-2,2.9539032E-2,5.5863477E-2,-5.6132358E-2,2.60194E-2,5.5562444E-2,6.844307E-2,6.357237E-2,7.620216E-2,8.139097E-2,9.130965E-2],"categories":[],"categories_nodes":[],"categories_segments":[],"categories_sizes":[],"default_left":[0,0,0,0,0,0,0,0,0,0,0,0,0,0,0,0,0,0,0,0,0,0,0,0,0,0,0,0,0,0,0,0,0,0,0,0,0,0,0,0,0,0,0,0,0,0,0,0,0,0,0,0,0,0,0,0,0,0,0,0,0,0,0,0,0,0,0,0,0,0,0,0,0,0,0,0,0,0,0,0,0,0,0,0,0,0,0,0,0,0,0,0,0,0,0,0,0,0,0,0,0,0,0,0,0,0,0,0,0,0,0,0,0,0,0,0,0,0,0,0,0,0,0,0,0,0,0],"id":0,"left_children":[1,3,5,7,9,11,13,15,17,19,21,23,25,27,29,31,33,35,37,39,41,43,45,47,49,51,53,55,57,59,61,63,65,67,69,71,73,75,77,79,81,83,85,87,89,91,93,95,97,99,101,103,105,107,109,111,113,115,117,119,121,123,125,-1,-1,-1,-1,-1,-1,-1,-1,-1,-1,-1,-1,-1,-1,-1,-1,-1,-1,-1,-1,-1,-1,-1,-1,-1,-1,-1,-1,-1,-1,-1,-1,-1,-1,-1,-1,-1,-1,-1,-1,-1,-1,-1,-1,-1,-1,-1,-1,-1,-1,-1,-1,-1,-1,-1,-1,-1,-1,-1,-1,-1,-1,-1,-1],"loss_changes":[3.2096597E5,4.280586E4,7.899036E4,3.9197344E3,9.078727E3,1.8000473E4,1.729561E4,2.2631562E3,2.1204688E3,2.6629082E3,3.6403643E3,3.5806467E3,1.26108125E4,2.6743555E3,2.4953906E3,4.0935864E2,1.179375E3,3.5385156E2,3.798047E2,6.452461E2,5.876826E2,7.9356836E2,1.9246957E3,1.0941152E3,2.1249553E3,1.7058739E3,4.365453E3,4.2981445E2,7.253281E2,7.4890625E2,1.3593281E3,1.4658862E2,5.821082E1,9.352969E2,1.3724596E2,1.25671875E2,2.79875E2,1.6666895E2,2.546626E2,1.3130273E2,3.9551074E2,1.459801E2,9.200537E2,5.1029785E2,1.617197E2,5.9249536E2,3.5947784E2,8.074968E2,1.3003948E3,7.624308E2,5.0385547E2,3.266928E2,4.7777393E2,2.1289626E3,4.5747695E3,1.2525934E2,3.8903076E2,1.2721973E2,4.176172E2,1.536695E2,2.3347461E2,2.9798828E2,3.132422E2,0E0,0E0,0E0,0E0,0E0,0E0,0E0,0E0,0E0,0E0,0E0,0E0,0E0,0E0,0E0,0E0,0E0,0E0,0E0,0E0,0E0,0E0,0E0,0E0,0E0,0E0,0E0,0E0,0E0,0E0,0E0,0E0,0E0,0E0,0E0,0E0,0E0,0E0,0E0,0E0,0E0,0E0,0E0,0E0,0E0,0E0,0E0,0E0,0E0,0E0,0E0,0E0,0E0,0E0,0E0,0E0,0E0,0E0,0E0,0E0,0E0,0E0,0E0,0E0],"parents":[2147483647,0,0,1,1,2,2,3,3,4,4,5,5,6,6,7,7,8,8,9,9,10,10,11,11,12,12,13,13,14,14,15,15,16,16,17,17,18,18,19,19,20,20,21,21,22,22,23,23,24,24,25,25,26,26,27,27,28,28,29,29,30,30,31,31,32,32,33,33,34,34,35,35,36,36,37,37,38,38,39,39,40,40,41,41,42,42,43,43,44,44,45,45,46,46,47,47,48,48,49,49,50,50,51,51,52,52,53,53,54,54,55,55,56,56,57,57,58,58,59,59,60,60,61,61,62,62],"right_children":[2,4,6,8,10,12,14,16,18,20,22,24,26,28,30,32,34,36,38,40,42,44,46,48,50,52,54,56,58,60,62,64,66,68,70,72,74,76,78,80,82,84,86,88,90,92,94,96,98,100,102,104,106,108,110,112,114,116,118,120,122,124,126,-1,-1,-1,-1,-1,-1,-1,-1,-1,-1,-1,-1,-1,-1,-1,-1,-1,-1,-1,-1,-1,-1,-1,-1,-1,-1,-1,-1,-1,-1,-1,-1,-1,-1,-1,-1,-1,-1,-1,-1,-1,-1,-1,-1,-1,-1,-1,-1,-1,-1,-1,-1,-1,-1,-1,-1,-1,-1,-1,-1,-1,-1,-1,-1],"split_conditions":[7.952033E11,1.3931568E11,4.1608334E0,2E0,4.08E0,7.177943E10,1.1E1,3.9694445E0,5.1522863E10,3.5919016E10,2.6546055E10,4.119167E0,7E0,6E0,4E0,5.5926624E10,1E11,4.143997E10,1.685993E11,5.1522863E10,3E0,1E11,5E0,4.025E0,7E0,4E0,3.9586208E0,9E0,1.3E1,5.4793286E10,2.9E1,5.4793286E10,3.6916666E0,4.0916667E0,4E0,1E1,4.0666666E0,4E0,4.0633335E0,4.0875E0,4.4848323E11,3.81625E0,9.805039E11,7.518868E11,2E0,3.877841E11,7E0,6.01614E10,9E0,3E0,2.9408857E11,7.438558E10,1.3931568E11,6.531131E12,1.8E1,6E0,5.286563E10,2E0,5.4793286E10,1E0,4.2083335E0,2E1,8E0,-3.6661897E-2,6.9504785E-3,3.431895E-2,-6.135305E-3,-8.012962E-2,-6.0391087E-2,-1.37481885E-2,6.257387E-2,-8.604813E-2,2.5126306E-2,-7.8511424E-2,-5.4456275E-2,-4.955196E-2,-7.11323E-2,-5.3349193E-2,-1.997195E-2,-7.598236E-2,-4.804971E-2,-6.470107E-2,-4.675518E-2,1.673851E-2,-1.4965752E-2,-4.46553E-2,-1.9108016E-2,-3.6358487E-2,-2.5230719E-2,-3.5954209E-3,3.6889043E-2,-2.5995214E-2,-1.1836604E-2,-1.2896509E-3,1.3806045E-2,-3.9656773E-2,-1.4671336E-2,-1.4370299E-2,1.4124672E-2,-1.645241E-2,7.6743116E-4,-1.6915664E-3,1.9489711E-2,-4.7866334E-3,1.7174782E-2,1.1923293E-2,3.0250004E-2,-6.105033E-3,3.137812E-2,3.3988487E-2,6.3078515E-2,5.451677E-3,2.0032104E-2,-1.6019868E-2,3.3977386E-2,3.3066183E-2,4.2810332E-2,2.9539032E-2,5.5863477E-2,-5.6132358E-2,2.60194E-2,5.5562444E-2,6.844307E-2,6.357237E-2,7.620216E-2,8.139097E-2,9.130965E-2],"split_indices":[24,33,30,31,30,13,23,22,20,16,20,30,27,23,15,5,5,32,32,24,31,5,31,30,31,27,30,31,31,16,31,16,14,30,0,0,30,31,30,26,32,14,32,32,0,32,31,16,31,27,20,5,5,32,31,31,20,15,16,19,30,31,15,0,0,0,0,0,0,0,0,0,0,0,0,0,0,0,0,0,0,0,0,0,0,0,0,0,0,0,0,0,0,0,0,0,0,0,0,0,0,0,0,0,0,0,0,0,0,0,0,0,0,0,0,0,0,0,0,0,0,0,0,0,0,0,0],"split_type":[0,0,0,0,0,0,0,0,0,0,0,0,0,0,0,0,0,0,0,0,0,0,0,0,0,0,0,0,0,0,0,0,0,0,0,0,0,0,0,0,0,0,0,0,0,0,0,0,0,0,0,0,0,0,0,0,0,0,0,0,0,0,0,0,0,0,0,0,0,0,0,0,0,0,0,0,0,0,0,0,0,0,0,0,0,0,0,0,0,0,0,0,0,0,0,0,0,0,0,0,0,0,0,0,0,0,0,0,0,0,0,0,0,0,0,0,0,0,0,0,0,0,0,0,0,0,0],"sum_hessian":[6.157015E5,2.4489412E5,3.7080738E5,1.0878141E5,1.3611272E5,2.412922E5,1.2951519E5,5.3488527E4,5.5292875E4,3.6626707E4,9.9486016E4,9.786334E4,1.4342884E5,5.7420035E4,7.209516E4,7.5761406E3,4.5912387E4,4.3005195E4,1.2287677E4,1.8806633E4,1.7820074E4,4.3765332E4,5.572068E4,4.228483E4,5.557852E4,6.5463117E4,7.7965734E4,1.9041121E4,3.837891E4,1.5531648E4,5.6563508E4,7.205356E3,3.7078467E2,4.4896418E4,1.0159704E3,2.6645111E4,1.6360085E4,6.299101E3,5.9885757E3,5.9242285E3,1.2882404E4,1.8492139E3,1.5970861E4,4.1799516E4,1.9658188E3,3.9591496E4,1.6129184E4,1.2937769E4,2.934706E4,3.3564516E4,2.2014002E4,2.3926404E4,4.1536715E4,1.5166042E4,6.279969E4,8.7970205E3,1.0244102E4,1.6422102E4,2.195681E4,1.2392759E3,1.4292372E4,2.0786197E4,3.577731E4,7.007537E3,1.9781886E2,2.2433136E2,1.464533E2,7.149684E3,3.7746734E4,9.5418005E2,6.179035E1,2.6620068E4,2.504386E1,1.5034172E4,1.3259127E3,1.0936029E3,5.205498E3,5.3469253E3,6.416502E2,5.4611953E3,4.6303333E2,5.089131E3,7.7932734E3,4.9502765E2,1.3541862E3,1.0716547E4,5.254314E3,1.8476764E4,2.332275E4,1.6776456E3,2.8817325E2,9.830326E3,2.976117E4,9.262533E3,6.866651E3,6.4759507E3,6.4618184E3,2.456438E4,4.782679E3,8.663913E3,2.4900604E4,3.303109E3,1.8710895E4,2.2093422E4,1.8329824E3,3.76094E4,3.9273157E3,7.347379E3,7.818663E3,4.3108902E4,1.9690787E4,1.8721162E3,6.9249043E3,4.04534E2,9.839567E3,4.7260576E3,1.1696043E4,1.6311093E3,2.0325701E4,5.8885086E1,1.1803907E3,6.471003E3,7.821369E3,7.1872246E3,1.3598972E4,1.219469E4,2.3582621E4],"tree_param":{"num_deleted":"0","num_feature":"34","num_nodes":"127","size_leaf_vector":"1"}},{"base_weights":[2.6473653E-8,-8.446222E-1,5.57704E-1,-1.2899083E0,-4.8908123E-1,2.362266E-1,1.1571503E0,-1.1059179E0,-1.4679824E0,-8.9389735E-1,-3.4011373E-1,-7.794927E-2,4.5063165E-1,7.67234E-1,1.4680173E0,-6.239193E-1,-1.1854928E0,-1.5678927E0,-1.1184913E0,-1.1437663E0,-6.303065E-1,-5.4615355E-1,-1.7972179E-1,-2.863035E-1,8.056178E-2,1.7106412E-1,7.365842E-1,4.7585097E-1,9.1184217E-1,1.129336E0,1.5610656E0,-6.740397E-1,3.4910882E-1,-1.2084461E0,-1.719072E-1,-1.6099468E0,-1.3873187E0,-1.2820097E0,-9.463955E-1,-1.3782908E0,-1.0102025E0,-6.749956E-1,9.939242E-2,-5.7399076E-1,4.5807727E-2,-2.9279613E-1,9.778225E-2,-3.2977745E-1,2.5720268E-1,-6.988072E-2,3.0994713E-1,-3.49223E-3,3.3201486E-1,2.4769317E-1,8.6830914E-1,3.217027E-1,6.082063E-1,7.6047546E-1,1.0250514E0,4.1946167E-1,1.1909034E0,1.3792263E0,1.6824106E0,-3.484097E-2,6.604788E-3,3.2620348E-2,-5.83068E-3,-7.6248094E-2,-5.742485E-2,-1.3062129E-2,5.9553336E-2,-8.086819E-2,-4.8540413E-2,-7.227332E-2,-4.5181897E-2,-4.1336607E-2,-6.680124E-2,-5.0718922E-2,-1.8976836E-2,-7.141826E-2,-5.2875903E-2,-6.483308E-2,-4.46639E-2,-9.8206615E-3,-3.6687594E-2,-3.720461E-2,8.475833E-3,-3.4609802E-2,-2.4024382E-2,-1.1360244E-3,5.6507654E-2,-2.4689524E-2,-1.1311575E-2,-1.2105065E-3,1.3127684E-2,-2.7425384E-2,-1.035289E-2,4.0906915E-4,1.8058568E-2,-1.4016311E-2,1.4650138E-3,1.2954292E-2,3.63045E-2,-3.961022E-3,8.177766E-3,1.4700142E-2,3.3259343E-2,-6.290428E-3,2.980776E-2,3.3467025E-2,5.8414675E-2,5.179278E-3,1.9032583E-2,-1.5221829E-2,3.2288168E-2,3.142196E-2,4.068897E-2,2.8069207E-2,5.3112574E-2,3.2383453E-2,-5.682248E-3,5.2826207E-2,6.509885E-2,6.0456302E-2,7.2915986E-2,7.723024E-2,8.697021E-2],"categories":[],"categories_nodes":[],"categories_segments":[],"categories_sizes":[],"default_left":[0,0,0,0,0,0,0,0,0,0,0,0,0,0,0,0,0,0,0,0,0,0,0,0,0,0,0,0,0,0,0,0,0,0,0,0,0,0,0,0,0,0,0,0,0,0,0,0,0,0,0,0,0,0,0,0,0,0,0,0,0,0,0,0,0,0,0,0,0,0,0,0,0,0,0,0,0,0,0,0,0,0,0,0,0,0,0,0,0,0,0,0,0,0,0,0,0,0,0,0,0,0,0,0,0,0,0,0,0,0,0,0,0,0,0,0,0,0,0,0,0,0,0,0,0,0,0],"id":1,"left_children":[1,3,5,7,9,11,13,15,17,19,21,23,25,27,29,31,33,35,37,39,41,43,45,47,49,51,53,55,57,59,61,63,65,67,69,71,73,75,77,79,81,83,85,87,89,91,93,95,97,99,101,103,105,107,109,111,113,115,117,119,121,123,125,-1,-1,-1,-1,-1,-1,-1,-1,-1,-1,-1,-1,-1,-1,-1,-1,-1,-1,-1,-1,-1,-1,-1,-1,-1,-1,-1,-1,-1,-1,-1,-1,-1,-1,-1,-1,-1,-1,-1,-1,-1,-1,-1,-1,-1,-1,-1,-1,-1,-1,-1,-1,-1,-1,-1,-1,-1,-1,-1,-1,-1,-1,-1,-1],"loss_changes":[2.898618E5,3.874372E4,7.142287E4,3.5581562E3,8.205754E3,1.6250845E4,1.5681203E4,2.048996E3,1.9260469E3,2.4101367E3,3.2872324E3,3.2319111E3,1.1463174E4,2.4179688E3,2.26675E3,3.6964355E2,1.0669102E3,3.2378906E2,3.442881E2,5.871836E2,5.810117E2,7.175137E2,1.7551727E3,9.9912573E2,1.9179507E3,2.0370964E3,4.564836E3,3.8823535E2,6.565078E2,6.7773047E2,1.2436719E3,1.3238306E2,5.2582165E1,8.493008E2,1.2412642E2,1.6348438E2,2.2699023E2,1.5364746E2,2.3028516E2,1.0796094E2,3.9995215E2,4.7190723E2,6.0988056E1,4.592881E2,1.4540811E2,5.315935E2,3.255206E2,1.0507793E3,8.1088E1,7.005819E2,4.6573413E2,4.4004483E2,4.7756104E2,1.9584662E3,3.3322188E3,1.1307446E2,3.5126074E2,1.150293E2,3.7786328E2,1.5093423E2,2.117539E2,3.02375E2,2.6327344E2,0E0,0E0,0E0,0E0,0E0,0E0,0E0,0E0,0E0,0E0,0E0,0E0,0E0,0E0,0E0,0E0,0E0,0E0,0E0,0E0,0E0,0E0,0E0,0E0,0E0,0E0,0E0,0E0,0E0,0E0,0E0,0E0,0E0,0E0,0E0,0E0,0E0,0E0,0E0,0E0,0E0,0E0,0E0,0E0,0E0,0E0,0E0,0E0,0E0,0E0,0E0,0E0,0E0,0E0,0E0,0E0,0E0,0E0,0E0,0E0,0E0,0E0,0E0,0E0],"parents":[2147483647,0,0,1,1,2,2,3,3,4,4,5,5,6,6,7,7,8,8,9,9,10,10,11,11,12,12,13,13,14,14,15,15,16,16,17,17,18,18,19,19,20,20,21,21,22,22,23,23,24,24,25,25,26,26,27,27,28,28,29,29,30,30,31,31,32,32,33,33,34,34,35,35,36,36,37,37,38,38,39,39,40,40,41,41,42,42,43,43,44,44,45,45,46,46,47,47,48,48,49,49,50,50,51,51,52,52,53,53,54,54,55,55,56,56,57,57,58,58,59,59,60,60,61,61,62,62],"right_children":[2,4,6,8,10,12,14,16,18,20,22,24,26,28,30,32,34,36,38,40,42,44,46,48,50,52,54,56,58,60,62,64,66,68,70,72,74,76,78,80,82,84,86,88,90,92,94,96,98,100,102,104,106,108,110,112,114,116,118,120,122,124,126,-1,-1,-1,-1,-1,-1,-1,-1,-1,-1,-1,-1,-1,-1,-1,-1,-1,-1,-1,-1,-1,-1,-1,-1,-1,-1,-1,-1,-1,-1,-1,-1,-1,-1,-1,-1,-1,-1,-1,-1,-1,-1,-1,-1,-1,-1,-1,-1,-1,-1,-1,-1,-1,-1,-1,-1,-1,-1,-1,-1,-1,-1,-1,-1],"split_conditions":[7.952033E11,1.3931568E11,4.1608334E0,2E0,4.08E0,7.177943E10,1.1E1,3.9694445E0,5.1522863E10,3.5919016E10,1.9054606E10,4.119167E0,9E0,6E0,4E0,5.5926624E10,1E11,7.882636E10,1.685993E11,7.376343E10,6.3528874E10,1E11,5E0,5.1522863E10,7E0,4E0,3.9586208E0,9E0,1.3E1,5.4793286E10,2.5E1,5.4793286E10,3.6916666E0,4.0916667E0,4E0,3.6982817E10,4.0666666E0,3E0,4.0633335E0,4.06875E0,3.7039584E11,3E0,9.7E0,7.518868E11,3E0,3.877841E11,7E0,4.06E0,4E0,4E0,1.0677711E10,5E0,1.3931568E11,6.531131E12,1.4E1,6E0,5.286563E10,2E0,5.4793286E10,3.3E1,4.2083335E0,2E1,5E0,-3.484097E-2,6.604788E-3,3.2620348E-2,-5.83068E-3,-7.6248094E-2,-5.742485E-2,-1.3062129E-2,5.9553336E-2,-8.086819E-2,-4.8540413E-2,-7.227332E-2,-4.5181897E-2,-4.1336607E-2,-6.680124E-2,-5.0718922E-2,-1.8976836E-2,-7.141826E-2,-5.2875903E-2,-6.483308E-2,-4.46639E-2,-9.8206615E-3,-3.6687594E-2,-3.720461E-2,8.475833E-3,-3.4609802E-2,-2.4024382E-2,-1.1360244E-3,5.6507654E-2,-2.4689524E-2,-1.1311575E-2,-1.2105065E-3,1.3127684E-2,-2.7425384E-2,-1.035289E-2,4.0906915E-4,1.8058568E-2,-1.4016311E-2,1.4650138E-3,1.2954292E-2,3.63045E-2,-3.961022E-3,8.177766E-3,1.4700142E-2,3.3259343E-2,-6.290428E-3,2.980776E-2,3.3467025E-2,5.8414675E-2,5.179278E-3,1.9032583E-2,-1.5221829E-2,3.2288168E-2,3.142196E-2,4.068897E-2,2.8069207E-2,5.3112574E-2,3.2383453E-2,-5.682248E-3,5.2826207E-2,6.509885E-2,6.0456302E-2,7.2915986E-2,7.723024E-2,8.697021E-2],"split_indices":[24,33,30,31,30,13,23,22,20,16,21,30,31,23,15,5,5,32,32,24,5,5,31,5,31,23,30,31,31,16,27,16,14,30,0,5,30,31,30,26,32,27,4,32,0,32,31,30,27,31,5,31,5,32,27,31,20,15,16,31,30,31,11,0,0,0,0,0,0,0,0,0,0,0,0,0,0,0,0,0,0,0,0,0,0,0,0,0,0,0,0,0,0,0,0,0,0,0,0,0,0,0,0,0,0,0,0,0,0,0,0,0,0,0,0,0,0,0,0,0,0,0,0,0,0,0,0],"split_type":[0,0,0,0,0,0,0,0,0,0,0,0,0,0,0,0,0,0,0,0,0,0,0,0,0,0,0,0,0,0,0,0,0,0,0,0,0,0,0,0,0,0,0,0,0,0,0,0,0,0,0,0,0,0,0,0,0,0,0,0,0,0,0,0,0,0,0,0,0,0,0,0,0,0,0,0,0,0,0,0,0,0,0,0,0,0,0,0,0,0,0,0,0,0,0,0,0,0,0,0,0,0,0,0,0,0,0,0,0,0,0,0,0,0,0,0,0,0,0,0,0,0,0,0,0,0,0],"sum_hessian":[6.153517E5,2.4472467E5,3.7062706E5,1.08648555E5,1.3607611E5,2.4124892E5,1.2937813E5,5.344014E4,5.5208414E4,3.6603055E4,9.9473055E4,9.785658E4,1.4339234E5,5.7393605E4,7.198452E4,7.5737173E3,4.586642E4,4.293185E4,1.227656E4,1.8788912E4,1.7814145E4,4.35396E4,5.5933457E4,4.228043E4,5.557615E4,7.250646E4,7.0885875E4,1.9037549E4,3.8356055E4,1.5517258E4,5.646727E4,7.203E3,3.7071722E2,4.485056E4,1.01586487E3,3.4815652E4,8.1161997E3,6.2918506E3,5.984709E3,6.814324E3,1.1974588E4,1.678618E4,1.0279645E3,4.158412E4,1.9554781E3,3.9740406E4,1.6193049E4,3.9149348E4,3.131083E3,3.3563926E4,2.2012225E4,3.4783547E4,3.7722918E4,1.504605E4,5.583983E4,8.796312E3,1.0241236E4,1.6415451E4,2.1940605E4,1.2390298E3,1.4278228E4,2.2605139E4,3.386213E4,7.0051836E3,1.9781647E2,2.2426532E2,1.464519E2,7.1382197E3,3.7712336E4,9.5413495E2,6.1729908E1,3.4414754E4,4.0089914E2,7.243415E3,8.7278436E2,6.6903613E2,5.6228145E3,5.3431226E3,6.4158624E2,5.8912188E3,9.231055E2,3.4680237E3,8.506564E3,1.8359917E3,1.4950188E4,7.816393E1,9.498006E2,1.836321E4,2.3220912E4,1.840163E3,1.15315155E2,9.885218E3,2.985519E4,9.304843E3,6.8882056E3,1.4069321E4,2.5080025E4,9.225381E2,2.208545E3,1.0750768E4,2.2813158E4,1.9616324E4,2.3958997E3,2.3933996E4,1.0849551E4,3.3861496E4,3.8614211E3,7.262414E3,7.7836357E3,3.357439E4,2.2265436E4,1.8721023E3,6.9242095E3,4.045081E2,9.836729E3,4.724766E3,1.1690686E4,1.6307535E3,2.0309852E4,8.6747437E2,3.7155542E2,6.4660117E3,7.8122163E3,7.179968E3,1.5425171E4,9.915468E3,2.3946662E4],"tree_param":{"num_deleted":"0","num_feature":"34","num_nodes":"127","size_leaf_vector":"1"}},{"base_weights":[7.129613E-7,-7.7207243E-1,5.5258983E-1,-1.2302564E0,-4.3767032E-1,2.4160168E-1,1.118788E0,-1.0533617E0,-1.4022173E0,-8.6980146E-1,-2.996344E-1,-2.6844567E-2,4.692618E-1,7.836066E-1,1.432243E0,-5.932686E-1,-1.1294656E0,-1.4968137E0,-1.0680847E0,-1.1598197E0,-6.810753E-1,-4.6854347E-1,-6.988215E-2,-1.5473375E-1,1.2968262E-1,-3.2979578E-1,5.648686E-1,5.1517326E-1,9.3359643E-1,1.1619877E0,1.5285115E0,-6.409432E-1,3.3190134E-1,-1.1514013E0,-1.6330981E-1,-1.5635554E0,-1.3881495E0,-1.1994984E0,-8.7317127E-1,-1.1957533E0,-4.203587E-1,-8.590886E-1,-4.4202694E-1,-4.9268934E-1,1.844314E-2,-2.8080088E-1,5.84415E-2,-1.8410413E-1,2.5112972E-1,9.6204534E-2,4.9351642E-1,-6.172475E-1,3.401658E-1,4.629375E-1,1.0262595E0,1.8400879E-1,5.805362E-1,7.914237E-1,1.0236044E0,7.7354217E-1,1.2453328E0,1.3708155E0,1.6378374E0,-1.9869657E-2,-3.585996E-2,3.1022657E-2,-5.541273E-3,-7.277074E-2,-5.46966E-2,-1.2411381E-2,5.678004E-2,-3.0222297E-2,-7.842242E-2,-7.084858E-2,-4.3900967E-2,-4.3162454E-2,-6.336426E-2,-4.7873728E-2,-1.5665054E-2,-2.8328827E-2,-6.12336E-2,-2.886648E-2,-6.4392127E-3,-1.5859691E-2,-4.7030948E-2,-4.0802218E-2,-1.8579409E-2,-2.9129608E-2,-1.8455766E-2,-2.39005E-3,5.5275638E-2,-1.6173642E-2,1.797432E-2,-2.3942569E-3,1.1438086E-2,-1.4553085E-2,-4.487599E-3,8.423286E-3,3.7605345E-2,-3.830231E-3,7.494016E-3,2.1596974E-2,4.8934534E-2,-5.6272883E-2,-2.4627414E-2,-1.3609434E-2,2.0211773E-2,8.305062E-3,2.9397702E-2,3.6476646E-2,5.9575923E-2,-8.498545E-2,9.596354E-3,2.687094E-2,4.3006826E-2,3.792356E-2,4.833829E-2,3.1194473E-2,5.26496E-2,2.0761995E-2,4.622598E-2,5.9179436E-2,7.098443E-2,5.9668012E-2,7.106933E-2,6.986704E-2,8.322575E-2],"categories":[],"categories_nodes":[],"categories_segments":[],"categories_sizes":[],"default_left":[0,0,0,0,0,0,0,0,0,0,0,0,0,0,0,0,0,0,0,0,0,0,0,0,0,0,0,0,0,0,0,0,0,0,0,0,0,0,0,0,0,0,0,0,0,0,0,0,0,0,0,0,0,0,0,0,0,0,0,0,0,0,0,0,0,0,0,0,0,0,0,0,0,0,0,0,0,0,0,0,0,0,0,0,0,0,0,0,0,0,0,0,0,0,0,0,0,0,0,0,0,0,0,0,0,0,0,0,0,0,0,0,0,0,0,0,0,0,0,0,0,0,0,0,0,0,0],"id":2,"left_children":[1,3,5,7,9,11,13,15,17,19,21,23,25,27,29,31,33,35,37,39,41,43,45,47,49,51,53,55,57,59,61,63,65,67,69,71,73,75,77,79,81,83,85,87,89,91,93,95,97,99,101,103,105,107,109,111,113,115,117,119,121,123,125,-1,-1,-1,-1,-1,-1,-1,-1,-1,-1,-1,-1,-1,-1,-1,-1,-1,-1,-1,-1,-1,-1,-1,-1,-1,-1,-1,-1,-1,-1,-1,-1,-1,-1,-1,-1,-1,-1,-1,-1,-1,-1,-1,-1,-1,-1,-1,-1,-1,-1,-1,-1,-1,-1,-1,-1,-1,-1,-1,-1,-1,-1,-1,-1],"loss_changes":[2.6212E5,3.9268047E4,6.305261E4,3.2878125E3,8.8375E3,1.4125907E4,1.3337125E4,1.8658203E3,1.7313984E3,1.962459E3,4.35776E3,2.1233198E3,9.554982E3,2.4697148E3,1.7049844E3,3.3401245E2,9.6916797E2,3.0771094E2,3.0891016E2,3.7517773E2,9.24375E2,7.6098047E2,1.2877776E3,6.958965E2,5.808982E2,2.5742693E3,5.253035E3,4.7599414E2,5.0285547E2,5.570078E2,8.316328E2,1.3338599E2,4.7531345E1,7.7978516E2,1.12410095E2,1.2323828E2,2.3792578E2,1.6359082E2,2.298789E2,2.4462305E2,2.9984299E1,5.499658E2,2.4411865E2,6.8478906E2,2.2027432E2,4.9185205E2,5.357323E2,5.493268E2,1.63026E2,4.0514752E2,1.1963507E2,5.922036E2,1.5757867E2,3.395211E3,9.902539E2,5.442717E1,2.2098633E2,8.745117E1,2.8240234E2,1.6445923E2,1.510625E2,1.7607422E2,1.8091406E2,0E0,0E0,0E0,0E0,0E0,0E0,0E0,0E0,0E0,0E0,0E0,0E0,0E0,0E0,0E0,0E0,0E0,0E0,0E0,0E0,0E0,0E0,0E0,0E0,0E0,0E0,0E0,0E0,0E0,0E0,0E0,0E0,0E0,0E0,0E0,0E0,0E0,0E0,0E0,0E0,0E0,0E0,0E0,0E0,0E0,0E0,0E0,0E0,0E0,0E0,0E0,0E0,0E0,0E0,0E0,0E0,0E0,0E0,0E0,0E0,0E0,0E0,0E0,0E0],"parents":[2147483647,0,0,1,1,2,2,3,3,4,4,5,5,6,6,7,7,8,8,9,9,10,10,11,11,12,12,13,13,14,14,15,15,16,16,17,17,18,18,19,19,20,20,21,21,22,22,23,23,24,24,25,25,26,26,27,27,28,28,29,29,30,30,31,31,32,32,33,33,34,34,35,35,36,36,37,37,38,38,39,39,40,40,41,41,42,42,43,43,44,44,45,45,46,46,47,47,48,48,49,49,50,50,51,51,52,52,53,53,54,54,55,55,56,56,57,57,58,58,59,59,60,60,61,61,62,62],"right_children":[2,4,6,8,10,12,14,16,18,20,22,24,26,28,30,32,34,36,38,40,42,44,46,48,50,52,54,56,58,60,62,64,66,68,70,72,74,76,78,80,82,84,86,88,90,92,94,96,98,100,102,104,106,108,110,112,114,116,118,120,122,124,126,-1,-1,-1,-1,-1,-1,-1,-1,-1,-1,-1,-1,-1,-1,-1,-1,-1,-1,-1,-1,-1,-1,-1,-1,-1,-1,-1,-1,-1,-1,-1,-1,-1,-1,-1,-1,-1,-1,-1,-1,-1,-1,-1,-1,-1,-1,-1,-1,-1,-1,-1,-1,-1,-1,-1,-1,-1,-1,-1,-1,-1,-1,-1,-1],"split_conditions":[4.4848323E11,1.3931568E11,4.1608334E0,2E0,4.076667E0,7E0,1.2E1,3.9694445E0,5.1522863E10,6.420187E10,4E0,4E0,2.1093777E12,9E0,3E0,5.5926624E10,1E11,4.143997E10,1.9408858E11,4.1055555E0,8.5821175E11,8.850568E10,3.6982817E10,1E11,1.3931568E11,4.06E0,5.1522863E10,7E0,1.4E1,2E0,2.7E1,3.0875E0,3.6916666E0,4.0916667E0,4E0,3.2458334E0,4.0783334E0,4E0,4.045417E0,3E0,2.4686724E12,3E0,2.2845841E11,2E0,3E0,7.177943E10,7E0,2E0,2E0,1.1344826E11,4E0,9.817479E9,1.1126064E12,1E11,9E0,7.5669056E12,7.438558E10,5.5926624E10,5.4793286E10,1.3779237E10,1E11,2E1,6E0,-1.9869657E-2,-3.585996E-2,3.1022657E-2,-5.541273E-3,-7.277074E-2,-5.46966E-2,-1.2411381E-2,5.678004E-2,-3.0222297E-2,-7.842242E-2,-7.084858E-2,-4.3900967E-2,-4.3162454E-2,-6.336426E-2,-4.7873728E-2,-1.5665054E-2,-2.8328827E-2,-6.12336E-2,-2.886648E-2,-6.4392127E-3,-1.5859691E-2,-4.7030948E-2,-4.0802218E-2,-1.8579409E-2,-2.9129608E-2,-1.8455766E-2,-2.39005E-3,5.5275638E-2,-1.6173642E-2,1.797432E-2,-2.3942569E-3,1.1438086E-2,-1.4553085E-2,-4.487599E-3,8.423286E-3,3.7605345E-2,-3.830231E-3,7.494016E-3,2.1596974E-2,4.8934534E-2,-5.6272883E-2,-2.4627414E-2,-1.3609434E-2,2.0211773E-2,8.305062E-3,2.9397702E-2,3.6476646E-2,5.9575923E-2,-8.498545E-2,9.596354E-3,2.687094E-2,4.3006826E-2,3.792356E-2,4.833829E-2,3.1194473E-2,5.26496E-2,2.0761995E-2,4.622598E-2,5.9179436E-2,7.098443E-2,5.9668012E-2,7.106933E-2,6.986704E-2,8.322575E-2],"split_indices":[20,33,30,31,30,31,23,22,20,20,31,27,32,27,11,5,5,32,32,22,32,5,21,5,5,30,5,31,31,15,27,6,14,30,0,14,30,31,18,31,32,31,24,27,0,5,31,19,0,16,15,12,32,13,23,32,5,5,16,16,5,31,15,0,0,0,0,0,0,0,0,0,0,0,0,0,0,0,0,0,0,0,0,0,0,0,0,0,0,0,0,0,0,0,0,0,0,0,0,0,0,0,0,0,0,0,0,0,0,0,0,0,0,0,0,0,0,0,0,0,0,0,0,0,0,0,0],"split_type":[0,0,0,0,0,0,0,0,0,0,0,0,0,0,0,0,0,0,0,0,0,0,0,0,0,0,0,0,0,0,0,0,0,0,0,0,0,0,0,0,0,0,0,0,0,0,0,0,0,0,0,0,0,0,0,0,0,0,0,0,0,0,0,0,0,0,0,0,0,0,0,0,0,0,0,0,0,0,0,0,0,0,0,0,0,0,0,0,0,0,0,0,0,0,0,0,0,0,0,0,0,0,0,0,0,0,0,0,0,0,0,0,0,0,0,0,0,0,0,0,0,0,0,0,0,0,0],"sum_hessian":[6.1438125E5,2.5629188E5,3.5808938E5,1.08131664E5,1.4816022E5,2.3113716E5,1.2695222E5,5.33047E4,5.4826965E4,3.5867906E4,1.1229231E5,1.0606781E5,1.2506934E5,6.1351637E4,6.560058E4,7.5669263E3,4.5737773E4,4.2727023E4,1.2099938E4,1.4137485E4,2.1730422E4,6.471451E4,4.75778E4,5.8373918E4,4.7693895E4,1.3365066E4,1.1170428E5,2.1993975E4,3.9357664E4,1.7233613E4,4.836697E4,7.196398E3,3.705283E2,4.4722203E4,1.0155691E3,2.6461148E4,1.6265878E4,7.224149E3,4.8757896E3,1.3481733E4,6.557514E2,1.2453795E4,9.276627E3,6.1657387E4,3.0571223E3,1.7996586E4,2.9581215E4,5.443525E4,3.9386697E3,4.3676297E4,4.0175996E3,9.352422E3,4.0126445E3,9.149343E4,2.0210852E4,3.6260793E3,1.8367895E4,1.5261328E4,2.4096334E4,3.0462568E3,1.4187356E4,1.980827E4,2.85587E4,1.7174224E3,5.4789756E3,2.2408026E2,1.4644804E2,7.106152E3,3.761605E4,9.540086E2,6.1560524E1,1.3494273E2,2.6326205E4,1.5394333E4,8.715448E2,1.2143273E3,6.009822E3,4.2370757E3,6.387139E2,5.9333264E2,1.2888401E4,4.2563055E2,2.3012083E2,1.629323E3,1.0824472E4,1.4685106E3,7.808116E3,3.5689082E4,2.5968307E4,2.8824282E3,1.7469417E2,1.6872605E4,1.1239806E3,1.8212395E4,1.1368821E4,2.5512361E4,2.8922889E4,3.3819634E3,5.567065E2,1.0350959E4,3.3325336E4,3.5668018E3,4.50798E2,1.8410844E3,7.511338E3,3.7976266E2,3.6328818E3,2.7114865E4,6.4378562E4,7.2316504E3,1.2979201E4,1.4284243E1,3.611795E3,1.5916344E4,2.4515505E3,1.2851446E4,2.4098818E3,1.6517832E3,2.244455E4,9.041834E2,2.1420732E3,1.0482873E4,3.704484E3,4.3984795E3,1.5409789E4,2.8569272E3,2.5701771E4],"tree_param":{"num_deleted":"0","num_feature":"34","num_nodes":"127","size_leaf_vector":"1"}},{"base_weights":[6.2673024E-7,-7.668847E-1,5.056045E-1,-1.1746539E0,-4.4353944E-1,2.3417306E-1,1.094684E0,-1.0047392E0,-1.3398397E0,-8.122085E-1,-3.0834362E-1,-2.7279817E-2,4.5098135E-1,7.631133E-1,1.3793799E0,-5.643867E-1,-1.0777975E0,-1.4421369E0,-1.04545E0,-1.0435008E0,-5.6919724E-1,-4.9604836E-1,-1.6108577E-1,-2.2105628E-1,8.5010566E-2,5.7794042E-2,6.312894E-1,4.9755314E-1,8.913094E-1,1.0951524E0,1.4701786E0,-6.0976136E-1,3.156344E-1,-1.0988288E0,-1.5516494E-1,-1.517176E0,-1.3641071E0,-1.1762795E0,-8.450864E-1,-1.2887156E0,-9.3112284E-1,-6.112756E-1,1.1665149E-1,-5.2205753E-1,1.9062981E-2,-2.6228794E-1,8.723022E-2,-3.254035E-1,-7.792929E-2,5.459024E-2,4.1757944E-1,-4.5444173E-1,2.8584942E-1,5.30971E-1,1.0334091E0,-2.3950228E-1,5.3317344E-1,6.964271E-1,9.973853E-1,8.409809E-1,1.1536435E0,1.1591243E0,1.515615E0,-1.7057102E-2,-3.363272E-2,2.9516876E-2,-5.266293E-3,-6.962965E-2,-5.2173264E-2,-1.1793944E-2,5.4219056E-2,-2.4081234E-2,-7.614337E-2,-6.921362E-2,-4.5184467E-2,-3.9897867E-2,-6.2135246E-2,-4.503376E-2,-6.797511E-3,-6.657841E-2,-4.271254E-2,-5.649034E-2,-4.0080067E-2,-3.5701264E-2,-1.808367E-2,-3.3973195E-2,9.134128E-3,-3.1557634E-2,-2.1787023E-2,-4.0381257E-3,3.2071643E-2,-1.8270891E-2,-7.3657804E-3,-1.1117597E-3,1.1746789E-2,-1.7167438E-2,5.668271E-3,-5.3409953E-3,1.7287139E-2,-3.6670435E-3,5.7920013E-3,1.9353112E-2,6.2342554E-2,-3.5839494E-2,-8.882116E-3,7.082106E-3,2.2215322E-2,4.923973E-3,3.0653102E-2,3.9202657E-2,6.0753513E-2,2.9547536E-3,-4.6325903E-2,1.8479964E-2,3.3909466E-2,2.8656447E-2,3.8015563E-2,4.7587547E-2,5.834154E-2,1.7008203E-3,4.3222062E-2,3.9939053E-2,5.8740556E-2,5.1902365E-3,6.011016E-2,7.1230344E-2,7.9761386E-2],"categories":[],"categories_nodes":[],"categories_segments":[],"categories_sizes":[],"default_left":[0,0,0,0,0,0,0,0,0,0,0,0,0,0,0,0,0,0,0,0,0,0,0,0,0,0,0,0,0,0,0,0,0,0,0,0,0,0,0,0,0,0,0,0,0,0,0,0,0,0,0,0,0,0,0,0,0,0,0,0,0,0,0,0,0,0,0,0,0,0,0,0,0,0,0,0,0,0,0,0,0,0,0,0,0,0,0,0,0,0,0,0,0,0,0,0,0,0,0,0,0,0,0,0,0,0,0,0,0,0,0,0,0,0,0,0,0,0,0,0,0,0,0,0,0,0,0],"id":3,"left_children":[1,3,5,7,9,11,13,15,17,19,21,23,25,27,29,31,33,35,37,39,41,43,45,47,49,51,53,55,57,59,61,63,65,67,69,71,73,75,77,79,81,83,85,87,89,91,93,95,97,99,101,103,105,107,109,111,113,115,117,119,121,123,125,-1,-1,-1,-1,-1,-1,-1,-1,-1,-1,-1,-1,-1,-1,-1,-1,-1,-1,-1,-1,-1,-1,-1,-1,-1,-1,-1,-1,-1,-1,-1,-1,-1,-1,-1,-1,-1,-1,-1,-1,-1,-1,-1,-1,-1,-1,-1,-1,-1,-1,-1,-1,-1,-1,-1,-1,-1,-1,-1,-1,-1,-1,-1,-1],"loss_changes":[2.3765328E5,3.2109453E4,5.9062445E4,3.0216875E3,6.7698203E3,1.4334039E4,1.0997594E4,1.7075898E3,1.6430703E3,2.0478457E3,2.7470352E3,2.4943655E3,9.800326E3,1.832084E3,1.6161953E3,3.0197852E2,8.834961E2,2.3521875E2,3.682588E2,5.133242E2,5.130283E2,5.85376E2,1.3996364E3,6.2809814E2,7.342336E2,5.077442E3,3.8226992E3,4.6029346E2,7.497578E2,2.2473047E2,6.696719E2,1.21198975E2,4.299158E1,7.226953E2,1.019164E2,1.2096484E2,1.8329297E2,2.1310059E2,2.1936816E2,1.0805859E2,3.286748E2,4.2924658E2,5.418017E1,3.9138672E2,1.3058531E2,4.6911523E2,2.607572E2,1.915586E2,2.171131E2,5.210575E2,1.5344043E2,9.722107E2,6.871614E2,2.6930488E3,8.561875E2,1.6595229E2,3.9635352E2,1.00375E2,1.8064062E2,5.380725E1,9.174414E1,2.753418E2,2.9803906E2,0E0,0E0,0E0,0E0,0E0,0E0,0E0,0E0,0E0,0E0,0E0,0E0,0E0,0E0,0E0,0E0,0E0,0E0,0E0,0E0,0E0,0E0,0E0,0E0,0E0,0E0,0E0,0E0,0E0,0E0,0E0,0E0,0E0,0E0,0E0,0E0,0E0,0E0,0E0,0E0,0E0,0E0,0E0,0E0,0E0,0E0,0E0,0E0,0E0,0E0,0E0,0E0,0E0,0E0,0E0,0E0,0E0,0E0,0E0,0E0,0E0,0E0,0E0,0E0],"parents":[2147483647,0,0,1,1,2,2,3,3,4,4,5,5,6,6,7,7,8,8,9,9,10,10,11,11,12,12,13,13,14,14,15,15,16,16,17,17,18,18,19,19,20,20,21,21,22,22,23,23,24,24,25,25,26,26,27,27,28,28,29,29,30,30,31,31,32,32,33,33,34,34,35,35,36,36,37,37,38,38,39,39,40,40,41,41,42,42,43,43,44,44,45,45,46,46,47,47,48,48,49,49,50,50,51,51,52,52,53,53,54,54,55,55,56,56,57,57,58,58,59,59,60,60,61,61,62,62],"right_children":[2,4,6,8,10,12,14,16,18,20,22,24,26,28,30,32,34,36,38,40,42,44,46,48,50,52,54,56,58,60,62,64,66,68,70,72,74,76,78,80,82,84,86,88,90,92,94,96,98,100,102,104,106,108,110,112,114,116,118,120,122,124,126,-1,-1,-1,-1,-1,-1,-1,-1,-1,-1,-1,-1,-1,-1,-1,-1,-1,-1,-1,-1,-1,-1,-1,-1,-1,-1,-1,-1,-1,-1,-1,-1,-1,-1,-1,-1,-1,-1,-1,-1,-1,-1,-1,-1,-1,-1,-1,-1,-1,-1,-1,-1,-1,-1,-1,-1,-1,-1,-1,-1,-1,-1,-1,-1],"split_conditions":[7.952033E11,1.3931568E11,4.1666665E0,2E0,4.08E0,6E0,8E0,3.9694445E0,6.4561705E10,3.5919016E10,2.6546055E10,4E0,1E11,4E0,1.9E1,5.5926624E10,1E11,2.7509885E10,1.9408858E11,5.1522863E10,6.3528874E10,5.5584384E9,5E0,2E0,1E11,4.047917E0,5.1522863E10,1.4539282E10,1.3E1,1.5E1,7.6088074E10,3.0375E0,3.6916666E0,4.0916667E0,4E0,3.2458334E0,4.0783334E0,4E0,4.0783334E0,4.08125E0,4.4848323E11,9.805039E11,9.7E0,7.518868E11,2E0,3E0,7E0,2.9408857E11,3E0,4.8467853E10,4E0,2.5172636E10,6.6615423E10,3.9979167E0,1.1E1,1.7E1,8E0,1E1,2.0018436E10,3.8817717E11,5.2214694E10,1E0,1.7E1,-1.7057102E-2,-3.363272E-2,2.9516876E-2,-5.266293E-3,-6.962965E-2,-5.2173264E-2,-1.1793944E-2,5.4219056E-2,-2.4081234E-2,-7.614337E-2,-6.921362E-2,-4.5184467E-2,-3.9897867E-2,-6.2135246E-2,-4.503376E-2,-6.797511E-3,-6.657841E-2,-4.271254E-2,-5.649034E-2,-4.0080067E-2,-3.5701264E-2,-1.808367E-2,-3.3973195E-2,9.134128E-3,-3.1557634E-2,-2.1787023E-2,-4.0381257E-3,3.2071643E-2,-1.8270891E-2,-7.3657804E-3,-1.1117597E-3,1.1746789E-2,-1.7167438E-2,5.668271E-3,-5.3409953E-3,1.7287139E-2,-3.6670435E-3,5.7920013E-3,1.9353112E-2,6.2342554E-2,-3.5839494E-2,-8.882116E-3,7.082106E-3,2.2215322E-2,4.923973E-3,3.0653102E-2,3.9202657E-2,6.0753513E-2,2.9547536E-3,-4.6325903E-2,1.8479964E-2,3.3909466E-2,2.8656447E-2,3.8015563E-2,4.7587547E-2,5.834154E-2,1.7008203E-3,4.3222062E-2,3.9939053E-2,5.8740556E-2,5.1902365E-3,6.011016E-2,7.1230344E-2,7.9761386E-2],"split_indices":[24,33,30,31,30,27,19,22,24,16,20,31,13,19,27,5,5,32,32,24,5,5,31,19,5,26,5,20,31,31,8,6,14,30,0,14,30,31,30,26,32,32,4,32,0,31,31,5,15,17,0,12,16,26,23,31,27,31,5,16,12,15,19,0,0,0,0,0,0,0,0,0,0,0,0,0,0,0,0,0,0,0,0,0,0,0,0,0,0,0,0,0,0,0,0,0,0,0,0,0,0,0,0,0,0,0,0,0,0,0,0,0,0,0,0,0,0,0,0,0,0,0,0,0,0,0,0],"split_type":[0,0,0,0,0,0,0,0,0,0,0,0,0,0,0,0,0,0,0,0,0,0,0,0,0,0,0,0,0,0,0,0,0,0,0,0,0,0,0,0,0,0,0,0,0,0,0,0,0,0,0,0,0,0,0,0,0,0,0,0,0,0,0,0,0,0,0,0,0,0,0,0,0,0,0,0,0,0,0,0,0,0,0,0,0,0,0,0,0,0,0,0,0,0,0,0,0,0,0,0,0,0,0,0,0,0,0,0,0,0,0,0,0,0,0,0,0,0,0,0,0,0,0,0,0,0,0],"sum_hessian":[6.129168E5,2.4353281E5,3.69384E5,1.07704516E5,1.358283E5,2.5286994E5,1.1651406E5,5.30958E4,5.460871E4,3.6443785E4,9.938452E4,1.1463295E5,1.3823698E5,5.382755E4,6.268651E4,7.5567666E3,4.5539035E4,4.0523375E4,1.4085337E4,1.8670426E4,1.777336E4,4.369085E4,5.5693668E4,4.20564E4,7.2576555E4,4.34624E4,9.477459E4,1.7526344E4,3.6301207E4,1.5180383E4,4.750613E4,7.1865303E3,3.7023608E2,4.4523926E4,1.0151117E3,2.0648166E4,1.9875209E4,8.518332E3,5.5670044E3,5.864121E3,1.2806304E4,1.6746059E4,1.0273003E3,4.1590824E4,2.1000288E3,3.9567656E4,1.6126012E4,2.432263E4,1.773377E4,6.649534E4,6.081215E3,1.3388796E4,3.0073602E4,7.5853445E4,1.8921143E4,8.076996E2,1.6718643E4,1.2797416E4,2.3503791E4,2.842738E3,1.2337645E4,6.0582646E3,4.1447863E4,1.3646168E3,5.8219136E3,2.2379402E2,1.4644208E2,7.0566436E3,3.746728E4,9.538132E2,6.129854E1,1.1332926E2,2.0534836E4,1.9039316E4,8.358918E2,1.2742014E3,7.244131E3,5.1620815E3,4.0492276E2,5.335772E3,5.28349E2,5.0507744E3,7.75553E3,1.1861407E4,4.884651E3,7.796853E1,9.493317E2,1.8368617E4,2.3222205E4,1.8105022E3,2.8952667E2,2.0856896E4,1.8710758E4,9.262426E3,6.8635864E3,2.3367152E4,9.554779E2,1.6602383E4,1.131385E3,2.1528672E4,4.4966668E4,5.8667837E3,2.1443106E2,6.873017E3,6.515779E3,1.5745738E4,1.4327862E4,1.2101199E4,6.375225E4,7.9769526E3,1.094419E4,5.636393E2,2.4406029E2,7.858266E3,8.860377E3,4.371081E3,8.426335E3,1.8522104E4,4.9816885E3,8.037928E1,2.762359E3,6.966936E2,1.1640951E4,2.377372E2,5.8205273E3,1.9348635E4,2.209923E4],"tree_param":{"num_deleted":"0","num_feature":"34","num_nodes":"127","size_leaf_vector":"1"}},{"base_weights":[6.294461E-8,-7.0263803E-1,5.020171E-1,-1.0918591E0,-3.720963E-1,2.1924612E-1,1.0215101E0,-9.11914E-1,-1.2819613E0,-7.621899E-1,-2.4570002E-1,7.5653307E-3,4.5789957E-1,7.112058E-1,1.3148139E0,-9.3933856E-1,-3.1756267E-2,-1.3179471E0,-5.540315E-1,-1.0244159E0,-6.183679E-1,-3.9955807E-1,-6.507589E-2,-1.3724321E-1,1.4230542E-1,-4.2302468E-1,5.4882234E-1,4.6552876E-1,8.490757E-1,1.0590944E0,1.406497E0,-1.0083023E0,-6.052055E-1,-9.3426734E-2,1.103865E0,-1.4141405E0,-1.155692E0,-8.379569E-1,-4.2789418E-1,-1.0640929E0,-3.9116567E-1,-7.434306E-1,-3.6335862E-1,-4.7572917E-1,-2.6659772E-1,-2.463548E-1,5.6176536E-2,-1.6427709E-1,2.5356093E-1,1.10486425E-1,4.586175E-1,-5.850102E-1,3.062482E-1,3.2258138E-1,7.521362E-1,1.5980518E-1,5.2600086E-1,7.176095E-1,9.3255347E-1,6.9476527E-1,1.1377106E0,1.2567877E0,1.5108883E0,-3.0338392E-2,-5.38163E-2,-3.469889E-2,-1.762901E-2,2.4398843E-2,-1.0199611E-2,-2.7580062E-2,6.173057E-2,-7.568176E-2,-6.855232E-2,-5.878551E-2,-2.9738307E-2,-8.661576E-2,-3.8995307E-2,-1.5822982E-2,-2.88226E-2,-2.4354475E-2,-5.4696698E-2,-2.6313066E-2,-6.517117E-3,-1.04634855E-2,-3.9015654E-2,-4.0190335E-2,-1.4214478E-2,-2.4791975E-2,-1.9672883E-3,-1.4492902E-2,5.563861E-3,-1.4270817E-2,1.6709577E-2,-2.1363234E-3,1.0642277E-2,-1.4040393E-2,-4.453472E-3,1.1132012E-2,7.49358E-2,-1.6461719E-3,8.505968E-3,2.003904E-2,4.246853E-2,-2.1928577E-2,-4.5759805E-2,-2.5588622E-2,1.9838482E-2,-6.505636E-3,2.2522584E-2,3.214569E-2,5.467562E-2,9.116117E-3,-2.4541665E-2,2.4262901E-2,3.9528053E-2,3.432998E-2,4.4142023E-2,3.7210077E-2,4.9402352E-2,2.9427027E-2,5.758528E-2,4.916067E-2,6.024704E-2,5.4534566E-2,6.521758E-2,6.39268E-2,7.683923E-2],"categories":[],"categories_nodes":[],"categories_segments":[],"categories_sizes":[],"default_left":[0,0,0,0,0,0,0,0,0,0,0,0,0,0,0,0,0,0,0,0,0,0,0,0,0,0,0,0,0,0,0,0,0,0,0,0,0,0,0,0,0,0,0,0,0,0,0,0,0,0,0,0,0,0,0,0,0,0,0,0,0,0,0,0,0,0,0,0,0,0,0,0,0,0,0,0,0,0,0,0,0,0,0,0,0,0,0,0,0,0,0,0,0,0,0,0,0,0,0,0,0,0,0,0,0,0,0,0,0,0,0,0,0,0,0,0,0,0,0,0,0,0,0,0,0,0,0],"id":4,"left_children":[1,3,5,7,9,11,13,15,17,19,21,23,25,27,29,31,33,35,37,39,41,43,45,47,49,51,53,55,57,59,61,63,65,67,69,71,73,75,77,79,81,83,85,87,89,91,93,95,97,99,101,103,105,107,109,111,113,115,117,119,121,123,125,-1,-1,-1,-1,-1,-1,-1,-1,-1,-1,-1,-1,-1,-1,-1,-1,-1,-1,-1,-1,-1,-1,-1,-1,-1,-1,-1,-1,-1,-1,-1,-1,-1,-1,-1,-1,-1,-1,-1,-1,-1,-1,-1,-1,-1,-1,-1,-1,-1,-1,-1,-1,-1,-1,-1,-1,-1,-1,-1,-1,-1,-1,-1,-1],"loss_changes":[2.1552656E5,3.2758453E4,5.2351883E4,3.9989062E3,6.7890527E3,1.1658253E4,1.1431578E4,1.4500664E3,1.4887266E3,1.2701914E3,2.89017E3,2.3862463E3,8.688676E3,2.0671152E3,1.5124688E3,1.341875E3,1.2730939E2,8.440156E2,9.562976E1,2.994248E2,6.9382227E2,5.686543E2,1.0515569E3,6.2281714E2,6.3757117E2,1.199114E3,4.5226016E3,4.05604E2,4.2840625E2,4.874414E2,7.4091406E2,1.3183672E3,2.2334131E2,1.1090493E2,2.0947906E1,1.4374219E2,2.2579883E2,4.139856E1,3.0572723E1,1.9282227E2,2.478051E1,2.8750146E2,2.4923956E2,3.1331348E2,1.798429E2,4.349054E2,4.442015E2,4.8317004E2,1.4651898E2,4.9228204E2,1.3051355E2,4.0115674E2,1.3684132E2,2.6941523E3,1.9302188E3,5.3199432E1,1.9708154E2,7.72168E1,2.4917773E2,1.4629456E2,1.4442969E2,1.5288672E2,1.665E2,0E0,0E0,0E0,0E0,0E0,0E0,0E0,0E0,0E0,0E0,0E0,0E0,0E0,0E0,0E0,0E0,0E0,0E0,0E0,0E0,0E0,0E0,0E0,0E0,0E0,0E0,0E0,0E0,0E0,0E0,0E0,0E0,0E0,0E0,0E0,0E0,0E0,0E0,0E0,0E0,0E0,0E0,0E0,0E0,0E0,0E0,0E0,0E0,0E0,0E0,0E0,0E0,0E0,0E0,0E0,0E0,0E0,0E0,0E0,0E0,0E0,0E0,0E0,0E0],"parents":[2147483647,0,0,1,1,2,2,3,3,4,4,5,5,6,6,7,7,8,8,9,9,10,10,11,11,12,12,13,13,14,14,15,15,16,16,17,17,18,18,19,19,20,20,21,21,22,22,23,23,24,24,25,25,26,26,27,27,28,28,29,29,30,30,31,31,32,32,33,33,34,34,35,35,36,36,37,37,38,38,39,39,40,40,41,41,42,42,43,43,44,44,45,45,46,46,47,47,48,48,49,49,50,50,51,51,52,52,53,53,54,54,55,55,56,56,57,57,58,58,59,59,60,60,61,61,62,62],"right_children":[2,4,6,8,10,12,14,16,18,20,22,24,26,28,30,32,34,36,38,40,42,44,46,48,50,52,54,56,58,60,62,64,66,68,70,72,74,76,78,80,82,84,86,88,90,92,94,96,98,100,102,104,106,108,110,112,114,116,118,120,122,124,126,-1,-1,-1,-1,-1,-1,-1,-1,-1,-1,-1,-1,-1,-1,-1,-1,-1,-1,-1,-1,-1,-1,-1,-1,-1,-1,-1,-1,-1,-1,-1,-1,-1,-1,-1,-1,-1,-1,-1,-1,-1,-1,-1,-1,-1,-1,-1,-1,-1,-1,-1,-1,-1,-1,-1,-1,-1,-1,-1,-1,-1,-1,-1,-1],"split_conditions":[4.4848323E11,2.7039583E11,4.1608334E0,2E0,4.074167E0,8E0,1.2E1,3.5754623E10,4.0866666E0,6.420187E10,4E0,4E0,1.9538115E12,9E0,3E0,5.458497E10,4E0,3.6112888E10,1.0330937E11,4.102778E0,1.1801427E12,2.0397371E10,7.177943E10,1.233023E11,1E11,4.06E0,7.177943E10,7E0,1.4E1,2E0,2.7E1,3.975E0,1E0,3.7791667E0,4.0324986E11,2.6061535E9,2.4112853E10,6.018776E10,4.1E0,3.5167708E0,2.4686724E12,3E0,2.2845841E11,8.850568E10,5.1522863E10,7.177943E10,7E0,3E0,5E0,4.1041665E0,4E0,6.4709965E11,1.09559985E12,4.0208335E0,5.1522863E10,1.171248E15,7.438558E10,5.5926624E10,2E0,1E0,4.1983333E0,2E1,6E0,-3.0338392E-2,-5.38163E-2,-3.469889E-2,-1.762901E-2,2.4398843E-2,-1.0199611E-2,-2.7580062E-2,6.173057E-2,-7.568176E-2,-6.855232E-2,-5.878551E-2,-2.9738307E-2,-8.661576E-2,-3.8995307E-2,-1.5822982E-2,-2.88226E-2,-2.4354475E-2,-5.4696698E-2,-2.6313066E-2,-6.517117E-3,-1.04634855E-2,-3.9015654E-2,-4.0190335E-2,-1.4214478E-2,-2.4791975E-2,-1.9672883E-3,-1.4492902E-2,5.563861E-3,-1.4270817E-2,1.6709577E-2,-2.1363234E-3,1.0642277E-2,-1.4040393E-2,-4.453472E-3,1.1132012E-2,7.49358E-2,-1.6461719E-3,8.505968E-3,2.003904E-2,4.246853E-2,-2.1928577E-2,-4.5759805E-2,-2.5588622E-2,1.9838482E-2,-6.505636E-3,2.2522584E-2,3.214569E-2,5.467562E-2,9.116117E-3,-2.4541665E-2,2.4262901E-2,3.9528053E-2,3.432998E-2,4.4142023E-2,3.7210077E-2,4.9402352E-2,2.9427027E-2,5.758528E-2,4.916067E-2,6.024704E-2,5.4534566E-2,6.521758E-2,6.39268E-2,7.683923E-2],"split_indices":[20,32,30,31,30,31,23,5,30,20,31,27,32,27,11,32,0,24,28,22,32,20,20,5,5,30,9,31,31,15,27,22,15,14,5,25,5,32,18,18,32,31,24,5,5,5,31,31,0,14,15,21,32,26,5,32,5,5,15,0,30,31,15,0,0,0,0,0,0,0,0,0,0,0,0,0,0,0,0,0,0,0,0,0,0,0,0,0,0,0,0,0,0,0,0,0,0,0,0,0,0,0,0,0,0,0,0,0,0,0,0,0,0,0,0,0,0,0,0,0,0,0,0,0,0,0,0],"split_type":[0,0,0,0,0,0,0,0,0,0,0,0,0,0,0,0,0,0,0,0,0,0,0,0,0,0,0,0,0,0,0,0,0,0,0,0,0,0,0,0,0,0,0,0,0,0,0,0,0,0,0,0,0,0,0,0,0,0,0,0,0,0,0,0,0,0,0,0,0,0,0,0,0,0,0,0,0,0,0,0,0,0,0,0,0,0,0,0,0,0,0,0,0,0,0,0,0,0,0,0,0,0,0,0,0,0,0,0,0,0,0,0,0,0,0,0,0,0,0,0,0,0,0,0,0,0,0],"sum_hessian":[6.1101125E5,2.5462711E5,3.5638412E5,1.1693315E5,1.3769397E5,2.3077169E5,1.2561245E5,6.007437E4,5.6858777E4,3.369547E4,1.039985E5,1.222974E5,1.0847429E5,6.1038945E4,6.4573508E4,5.825903E4,1.8153424E3,5.4179555E4,2.6792202E3,1.1932753E4,2.1762715E4,5.61597E4,4.7838797E4,5.894631E4,6.335109E4,1.0148149E4,9.832614E4,2.1942652E4,3.9096293E4,1.7044936E4,4.7528574E4,4.829012E4,9.96891E3,1.7227076E3,9.263475E1,3.4009348E4,2.0170207E4,8.2240546E2,1.8568148E3,1.1228536E4,7.042169E2,1.4600405E4,7.162309E3,3.570324E4,2.045646E4,1.917304E4,2.8665758E4,5.513306E4,3.8132495E3,5.756206E4,5.78903E3,8.303895E3,1.8442559E3,4.6540254E4,5.1785883E4,3.624123E3,1.831853E4,1.5187559E4,2.3908734E4,3.0269636E3,1.4017973E4,1.9531361E4,2.799721E4,6.997097E3,4.1293023E4,7.37544E3,2.5934705E3,2.7471545E2,1.4479922E3,6.545023E0,8.608973E1,1.0268185E4,2.3741164E4,1.947412E4,6.9608673E2,4.8368885E1,7.740366E2,1.0627595E3,7.9405536E2,5.530065E2,1.067553E4,4.6325323E2,2.4096364E2,9.434396E2,1.3656966E4,1.0886884E3,6.0736206E3,3.4130242E4,1.5729962E3,1.9270488E4,1.185973E3,1.7964803E4,1.2082366E3,1.7572932E4,1.1092825E4,2.1624371E4,3.3508688E4,3.7220005E3,9.124892E1,1.69059E4,4.065616E4,5.0444146E3,7.446155E2,5.75421E3,2.549684E3,1.8328647E2,1.6609694E3,1.0250566E4,3.6289688E4,3.9235484E4,1.2550398E4,3.5035913E3,1.2053174E2,1.5876369E4,2.4421594E3,1.2791966E4,2.3955928E3,5.4443525E3,1.846438E4,2.4578713E3,5.690923E2,4.255148E3,9.762824E3,4.3532896E3,1.5178071E4,2.812501E3,2.518471E4],"tree_param":{"num_deleted":"0","num_feature":"34","num_nodes":"127","size_leaf_vector":"1"}},{"base_weights":[1.1994887E-6,-6.9899404E-1,4.5962113E-1,-1.0769901E0,-4.028221E-1,2.1236958E-1,1.0025374E0,-9.1736215E-1,-1.2333971E0,-7.34782E-1,-2.7784842E-1,1.1526504E-2,4.501185E-1,6.935128E-1,1.271361E0,-5.106019E-1,-9.8542076E-1,-1.3231323E0,-9.242093E-1,-9.5091176E-1,-5.0818986E-1,-4.4882885E-1,-1.4452408E-1,-1.4374876E-1,1.461117E-1,2.00053E-3,5.98183E-1,4.4795886E-1,8.126168E-1,1.084679E0,1.3993248E0,-5.517769E-1,2.8647602E-1,-1.285054E0,-9.30041E-1,-1.3615228E0,-1.1595273E0,-1.0677621E0,-7.745257E-1,-1.1790617E0,-8.462408E-1,-5.4882586E-1,1.4490335E-1,-4.716937E-1,3.465811E-2,-3.3007556E-1,-3.207421E-2,-2.518849E-1,-4.9508564E-2,-6.6855717E-1,1.7168988E-1,-4.0039456E-1,2.9391623E-1,5.037533E-1,9.634673E-1,-2.1568543E-1,4.801342E-1,6.8439716E-1,9.4896483E-1,8.7010103E-1,1.1625465E0,6.4349246E-1,1.4169463E0,-2.8672129E-2,1.0528415E-2,2.6898667E-2,-4.8831594E-3,-4.9113035E-2,-7.027909E-2,-4.746956E-2,-1.5750574E-3,-6.844216E-2,-3.6825646E-2,-6.0631733E-2,-3.6202233E-2,-3.308219E-2,-5.582701E-2,-4.060967E-2,2.273808E-3,-6.1479587E-2,-4.008664E-2,-5.478294E-2,-3.7270047E-2,-3.2165494E-2,-1.5984388E-2,4.5152656E-3,5.0949704E-2,-2.861219E-2,-1.9654766E-2,-3.3129205E-3,3.1246776E-2,-1.784628E-2,8.778895E-3,-4.5783236E-3,1.0807974E-2,-1.7319148E-2,-7.481827E-3,-2.881811E-3,3.736428E-2,-4.6132147E-2,-1.3591013E-2,6.893795E-3,2.4164023E-2,-3.3204224E-2,-8.877317E-3,-1.12329275E-4,2.0528385E-2,4.8101186E-3,2.931798E-2,3.3065002E-2,5.4641046E-2,3.3891145E-3,-4.34448E-2,1.6536249E-2,3.065211E-2,2.6030278E-2,3.673033E-2,4.5176774E-2,5.5434465E-2,3.2031115E-2,4.56374E-2,3.4910623E-2,5.920735E-2,4.5899574E-2,1.3422608E-2,6.5193936E-2,7.425978E-2],"categories":[],"categories_nodes":[],"categories_segments":[],"categories_sizes":[],"default_left":[0,0,0,0,0,0,0,0,0,0,0,0,0,0,0,0,0,0,0,0,0,0,0,0,0,0,0,0,0,0,0,0,0,0,0,0,0,0,0,0,0,0,0,0,0,0,0,0,0,0,0,0,0,0,0,0,0,0,0,0,0,0,0,0,0,0,0,0,0,0,0,0,0,0,0,0,0,0,0,0,0,0,0,0,0,0,0,0,0,0,0,0,0,0,0,0,0,0,0,0,0,0,0,0,0,0,0,0,0,0,0,0,0,0,0,0,0,0,0,0,0,0,0,0,0,0,0],"id":5,"left_children":[1,3,5,7,9,11,13,15,17,19,21,23,25,27,29,31,33,35,37,39,41,43,45,47,49,51,53,55,57,59,61,63,65,67,69,71,73,75,77,79,81,83,85,87,89,91,93,95,97,99,101,103,105,107,109,111,113,115,117,119,121,123,125,-1,-1,-1,-1,-1,-1,-1,-1,-1,-1,-1,-1,-1,-1,-1,-1,-1,-1,-1,-1,-1,-1,-1,-1,-1,-1,-1,-1,-1,-1,-1,-1,-1,-1,-1,-1,-1,-1,-1,-1,-1,-1,-1,-1,-1,-1,-1,-1,-1,-1,-1,-1,-1,-1,-1,-1,-1,-1,-1,-1,-1,-1,-1,-1],"loss_changes":[1.9557288E5,2.7034555E4,4.929928E4,2.6475703E3,5.617047E3,1.2049291E4,9.545734E3,1.4530938E3,1.4854141E3,1.8130996E3,2.2423442E3,2.8585784E3,7.667E3,1.5632656E3,1.4665625E3,2.4723462E2,7.451914E2,2.592422E2,2.5823145E2,4.515996E2,4.7992188E2,4.7645605E2,1.1532611E3,6.4722864E2,1.5270282E3,3.3712769E3,2.9954688E3,3.730232E2,6.2873047E2,4.1666797E2,4.8467188E2,1.1836133E2,3.5841568E1,2.5459668E2,6.6010547E2,1.5285156E2,1.818086E2,1.21120605E2,1.8245044E2,1.1261035E2,3.260371E2,3.68313E2,5.0489487E1,3.2500098E2,1.16025246E2,2.832312E2,5.0828415E2,2.8571472E2,2.1982787E2,2.246283E2,7.4848706E2,7.089546E2,5.746511E2,2.3234668E3,6.9656836E2,1.4972072E2,3.3057178E2,1.5222656E2,1.25578125E2,6.459326E1,1.8310742E2,8.545407E1,2.729922E2,0E0,0E0,0E0,0E0,0E0,0E0,0E0,0E0,0E0,0E0,0E0,0E0,0E0,0E0,0E0,0E0,0E0,0E0,0E0,0E0,0E0,0E0,0E0,0E0,0E0,0E0,0E0,0E0,0E0,0E0,0E0,0E0,0E0,0E0,0E0,0E0,0E0,0E0,0E0,0E0,0E0,0E0,0E0,0E0,0E0,0E0,0E0,0E0,0E0,0E0,0E0,0E0,0E0,0E0,0E0,0E0,0E0,0E0,0E0,0E0,0E0,0E0,0E0,0E0],"parents":[2147483647,0,0,1,1,2,2,3,3,4,4,5,5,6,6,7,7,8,8,9,9,10,10,11,11,12,12,13,13,14,14,15,15,16,16,17,17,18,18,19,19,20,20,21,21,22,22,23,23,24,24,25,25,26,26,27,27,28,28,29,29,30,30,31,31,32,32,33,33,34,34,35,35,36,36,37,37,38,38,39,39,40,40,41,41,42,42,43,43,44,44,45,45,46,46,47,47,48,48,49,49,50,50,51,51,52,52,53,53,54,54,55,55,56,56,57,57,58,58,59,59,60,60,61,61,62,62],"right_children":[2,4,6,8,10,12,14,16,18,20,22,24,26,28,30,32,34,36,38,40,42,44,46,48,50,52,54,56,58,60,62,64,66,68,70,72,74,76,78,80,82,84,86,88,90,92,94,96,98,100,102,104,106,108,110,112,114,116,118,120,122,124,126,-1,-1,-1,-1,-1,-1,-1,-1,-1,-1,-1,-1,-1,-1,-1,-1,-1,-1,-1,-1,-1,-1,-1,-1,-1,-1,-1,-1,-1,-1,-1,-1,-1,-1,-1,-1,-1,-1,-1,-1,-1,-1,-1,-1,-1,-1,-1,-1,-1,-1,-1,-1,-1,-1,-1,-1,-1,-1,-1,-1,-1,-1,-1,-1],"split_conditions":[7.952033E11,1.3931568E11,4.1666665E0,2E0,4.0833335E0,4E0,8E0,3.9694445E0,5.1522863E10,3.5919016E10,1.9054606E10,5E0,1E11,4E0,2.9E1,5.5926624E10,4.0916667E0,7.882636E10,1.685993E11,5.1522863E10,6.3528874E10,1E11,3E0,3E0,4.06E0,4.0333333E0,5.1522863E10,1.4539282E10,1.2E1,1.8E1,1.3931568E11,5.4793286E10,3.6916666E0,4.0333333E0,1.9408858E11,3.6982817E10,4.0666666E0,3E0,4.0944443E0,4.077083E0,3.7039584E11,9.805039E11,9.685442E12,7.518868E11,2E0,1.3931568E11,7E0,1.0394892E11,2E0,4.088889E0,3.1332858E10,2.2727844E10,8E0,3.9791667E0,9E0,1.7E1,8E0,1E1,2.0018436E10,3E0,5.2214694E10,3.4E1,8E0,-2.8672129E-2,1.0528415E-2,2.6898667E-2,-4.8831594E-3,-4.9113035E-2,-7.027909E-2,-4.746956E-2,-1.5750574E-3,-6.844216E-2,-3.6825646E-2,-6.0631733E-2,-3.6202233E-2,-3.308219E-2,-5.582701E-2,-4.060967E-2,2.273808E-3,-6.1479587E-2,-4.008664E-2,-5.478294E-2,-3.7270047E-2,-3.2165494E-2,-1.5984388E-2,4.5152656E-3,5.0949704E-2,-2.861219E-2,-1.9654766E-2,-3.3129205E-3,3.1246776E-2,-1.784628E-2,8.778895E-3,-4.5783236E-3,1.0807974E-2,-1.7319148E-2,-7.481827E-3,-2.881811E-3,3.736428E-2,-4.6132147E-2,-1.3591013E-2,6.893795E-3,2.4164023E-2,-3.3204224E-2,-8.877317E-3,-1.12329275E-4,2.0528385E-2,4.8101186E-3,2.931798E-2,3.3065002E-2,5.4641046E-2,3.3891145E-3,-4.34448E-2,1.6536249E-2,3.065211E-2,2.6030278E-2,3.673033E-2,4.5176774E-2,5.5434465E-2,3.2031115E-2,4.56374E-2,3.4910623E-2,5.920735E-2,4.5899574E-2,1.3422608E-2,6.5193936E-2,7.425978E-2],"split_indices":[24,33,30,31,30,19,19,22,20,16,21,31,13,19,31,5,30,32,32,24,5,5,31,27,30,18,5,20,27,31,12,16,14,30,5,5,30,31,22,26,32,32,5,32,0,5,31,16,0,22,5,12,31,18,23,31,27,31,5,15,12,27,15,0,0,0,0,0,0,0,0,0,0,0,0,0,0,0,0,0,0,0,0,0,0,0,0,0,0,0,0,0,0,0,0,0,0,0,0,0,0,0,0,0,0,0,0,0,0,0,0,0,0,0,0,0,0,0,0,0,0,0,0,0,0,0,0],"split_type":[0,0,0,0,0,0,0,0,0,0,0,0,0,0,0,0,0,0,0,0,0,0,0,0,0,0,0,0,0,0,0,0,0,0,0,0,0,0,0,0,0,0,0,0,0,0,0,0,0,0,0,0,0,0,0,0,0,0,0,0,0,0,0,0,0,0,0,0,0,0,0,0,0,0,0,0,0,0,0,0,0,0,0,0,0,0,0,0,0,0,0,0,0,0,0,0,0,0,0,0,0,0,0,0,0,0,0,0,0,0,0,0,0,0,0,0,0,0,0,0,0,0,0,0,0,0,0],"sum_hessian":[6.087432E5,2.414868E5,3.6725638E5,1.06087555E5,1.3539925E5,2.5233906E5,1.1491732E5,5.250659E4,5.358096E4,3.7031062E4,9.836818E4,1.367868E5,1.1555227E5,5.346293E4,6.1454395E4,7.5273E3,4.497929E4,4.1525734E4,1.2055229E4,1.8951451E4,1.8079611E4,4.3096785E4,5.52714E4,6.3511484E4,7.3275305E4,2.8698156E4,8.685412E4,1.7463531E4,3.59994E4,2.4996842E4,3.645755E4,7.157851E3,3.6944852E2,7.0130176E3,3.7966273E4,3.3627574E4,7.898161E3,6.150505E3,5.904724E3,5.956936E3,1.2994516E4,1.7020729E4,1.0588835E3,4.1150727E4,1.9460587E3,2.0855758E4,3.441564E4,2.9574492E4,3.3936996E4,2.2298274E3,7.104548E4,1.2065683E4,1.6632473E4,6.901533E4,1.7838785E4,8.072658E2,1.6656266E4,1.8555805E4,1.7443594E4,6.658987E3,1.8337855E4,8.3146246E2,3.562609E4,6.960289E3,1.9756227E2,2.230297E2,1.4641882E2,1.9993484E3,5.013669E3,3.7165844E4,8.004294E2,3.32371E4,3.9047195E2,7.038078E3,8.6008295E2,6.61074E2,5.4894307E3,5.645406E3,2.5931845E2,5.251431E3,7.055049E2,3.7383052E3,9.256211E3,1.2050114E4,4.970614E3,9.976698E2,6.1213802E1,1.8051432E4,2.3099293E4,1.662686E3,2.8337268E2,1.9804441E4,1.0513164E3,2.776262E4,6.653022E3,1.5368507E4,1.4205984E4,3.3595234E4,3.4175876E2,1.358479E3,8.713483E2,6.409166E4,6.953819E3,5.5255166E3,6.5401665E3,4.7002173E3,1.1932256E4,1.1631538E4,5.7383793E4,5.349223E3,1.24895625E4,5.635873E2,2.4367851E2,7.843001E3,8.813265E3,4.3562754E3,1.4199529E4,1.3586062E4,3.8575322E3,1.0460929E3,5.612894E3,8.1662463E2,1.752123E4,4.7924576E2,3.5221667E2,1.3417547E4,2.2208541E4],"tree_param":{"num_deleted":"0","num_feature":"34","num_nodes":"127","size_leaf_vector":"1"}},{"base_weights":[7.97686E-7,-6.998778E-1,4.197145E-1,-1.0335255E0,-4.1240633E-1,1.9184592E-1,9.660889E-1,-8.777533E-1,-1.1866704E0,-6.8437004E-1,-2.8751913E-1,-1.474152E-1,3.5775593E-1,6.5628624E-1,1.2199332E0,-4.980675E-1,-9.457127E-1,-1.2743179E0,-8.8868797E-1,-9.168508E-1,-4.8007253E-1,-4.1338646E-1,-1.2060746E-1,-3.487915E-1,-1.6313363E-2,1.2490479E-1,5.895589E-1,4.0432724E-1,7.807058E-1,9.695643E-1,1.3096527E0,-5.3627217E-1,2.4902602E-1,-1.2791859E0,-8.9145964E-1,-1.3365611E0,-1.173826E0,-9.314318E-1,-4.259381E-1,-1.1601322E0,-8.390989E-1,-1.0769204E-1,-5.7167614E-1,-4.3546757E-1,3.54016E-2,-2.3704043E-1,-3.9914023E-2,-7.5927836E-1,-2.6997793E-1,-1.5480794E-1,8.495595E-2,-2.5289673E-2,2.0791546E-1,1.8261403E-1,6.7724985E-1,2.0649476E-1,5.001543E-1,4.0188435E-1,8.1719935E-1,2.381452E-1,1.0127671E0,1.1613482E0,1.4102396E0,-2.0749988E-2,-3.3745468E-2,2.5617912E-2,-5.639905E-3,-6.6666916E-2,-3.7334304E-2,-4.561627E-2,-6.081216E-3,-6.69326E-2,3.9163966E-2,-6.0383815E-2,-3.9816134E-2,-5.2903384E-2,-4.0014368E-2,-2.7542515E-2,1.0751159E-2,-6.042954E-2,-4.5586158E-2,-5.2209925E-2,-3.7803058E-2,5.4734545E-3,-2.562888E-2,-4.5404658E-2,-2.4499476E-2,-2.7792132E-2,-1.8483575E-2,-3.6889385E-4,6.5038204E-2,-1.3022398E-2,5.139772E-3,-3.5333205E-3,1.2119825E-2,-5.901901E-2,-3.141731E-2,-1.5040949E-2,1.0747798E-2,-9.591806E-3,1.12835495E-2,-5.145565E-3,8.863707E-3,-2.6367882E-3,1.5527636E-2,8.885542E-3,2.3870993E-2,-1.9837884E-2,1.722872E-2,2.6207203E-2,4.8065398E-2,2.5734106E-2,8.150947E-3,2.126052E-2,2.9888889E-2,-1.8575674E-2,2.4115276E-2,3.5070784E-2,4.4180322E-2,2.1947611E-2,-1.9061565E-2,4.328869E-2,5.5084497E-2,5.0285935E-2,6.0389187E-2,5.884276E-2,7.181802E-2],"categories":[],"categories_nodes":[],"categories_segments":[],"categories_sizes":[],"default_left":[0,0,0,0,0,0,0,0,0,0,0,0,0,0,0,0,0,0,0,0,0,0,0,0,0,0,0,0,0,0,0,0,0,0,0,0,0,0,0,0,0,0,0,0,0,0,0,0,0,0,0,0,0,0,0,0,0,0,0,0,0,0,0,0,0,0,0,0,0,0,0,0,0,0,0,0,0,0,0,0,0,0,0,0,0,0,0,0,0,0,0,0,0,0,0,0,0,0,0,0,0,0,0,0,0,0,0,0,0,0,0,0,0,0,0,0,0,0,0,0,0,0,0,0,0,0,0],"id":6,"left_children":[1,3,5,7,9,11,13,15,17,19,21,23,25,27,29,31,33,35,37,39,41,43,45,47,49,51,53,55,57,59,61,63,65,67,69,71,73,75,77,79,81,83,85,87,89,91,93,95,97,99,101,103,105,107,109,111,113,115,117,119,121,123,125,-1,-1,-1,-1,-1,-1,-1,-1,-1,-1,-1,-1,-1,-1,-1,-1,-1,-1,-1,-1,-1,-1,-1,-1,-1,-1,-1,-1,-1,-1,-1,-1,-1,-1,-1,-1,-1,-1,-1,-1,-1,-1,-1,-1,-1,-1,-1,-1,-1,-1,-1,-1,-1,-1,-1,-1,-1,-1,-1,-1,-1,-1,-1,-1],"loss_changes":[1.78063E5,2.179543E4,4.7177367E4,2.5079531E3,4.1458965E3,1.5051643E4,8.769602E3,1.3450039E3,1.3839062E3,1.8240547E3,1.7574785E3,2.3186184E3,9.693174E3,1.5742598E3,1.3756328E3,2.2614148E2,7.989961E2,2.5473438E2,2.3807617E2,3.3887598E2,6.974678E2,4.7263086E2,3.3790527E2,1.1201577E3,7.4608E2,1.1170106E3,3.2113887E3,3.1470728E2,4.644961E2,5.108662E2,6.714844E2,1.2637793E2,3.682705E1,1.7738867E2,6.109531E2,1.1317578E2,1.9941602E2,1.824375E2,8.188936E1,5.124707E1,2.311543E2,3.5513055E2,4.5054785E2,3.598125E2,1.21124176E2,1.1713971E2,1.8445688E2,3.0677905E2,4.345918E2,3.1658508E2,5.3294006E2,2.9397845E2,4.6961792E2,1.4973774E3,3.2195703E3,7.2544586E1,8.158887E1,1.840604E2,2.3517773E2,1.125292E2,1.986709E2,1.3061133E2,1.621875E2,0E0,0E0,0E0,0E0,0E0,0E0,0E0,0E0,0E0,0E0,0E0,0E0,0E0,0E0,0E0,0E0,0E0,0E0,0E0,0E0,0E0,0E0,0E0,0E0,0E0,0E0,0E0,0E0,0E0,0E0,0E0,0E0,0E0,0E0,0E0,0E0,0E0,0E0,0E0,0E0,0E0,0E0,0E0,0E0,0E0,0E0,0E0,0E0,0E0,0E0,0E0,0E0,0E0,0E0,0E0,0E0,0E0,0E0,0E0,0E0,0E0,0E0,0E0,0E0],"parents":[2147483647,0,0,1,1,2,2,3,3,4,4,5,5,6,6,7,7,8,8,9,9,10,10,11,11,12,12,13,13,14,14,15,15,16,16,17,17,18,18,19,19,20,20,21,21,22,22,23,23,24,24,25,25,26,26,27,27,28,28,29,29,30,30,31,31,32,32,33,33,34,34,35,35,36,36,37,37,38,38,39,39,40,40,41,41,42,42,43,43,44,44,45,45,46,46,47,47,48,48,49,49,50,50,51,51,52,52,53,53,54,54,55,55,56,56,57,57,58,58,59,59,60,60,61,61,62,62],"right_children":[2,4,6,8,10,12,14,16,18,20,22,24,26,28,30,32,34,36,38,40,42,44,46,48,50,52,54,56,58,60,62,64,66,68,70,72,74,76,78,80,82,84,86,88,90,92,94,96,98,100,102,104,106,108,110,112,114,116,118,120,122,124,126,-1,-1,-1,-1,-1,-1,-1,-1,-1,-1,-1,-1,-1,-1,-1,-1,-1,-1,-1,-1,-1,-1,-1,-1,-1,-1,-1,-1,-1,-1,-1,-1,-1,-1,-1,-1,-1,-1,-1,-1,-1,-1,-1,-1,-1,-1,-1,-1,-1,-1,-1,-1,-1,-1,-1,-1,-1,-1,-1,-1,-1,-1,-1,-1],"split_conditions":[1.6015938E12,1.3931568E11,4.1697917E0,2E0,4.085E0,1E11,1.2E1,3.9886112E0,5.1522863E10,3.6982817E10,2E0,1E11,9E0,1.1E1,3E0,5.5926624E10,4.09E0,4.143997E10,4.077083E0,4.1595937E10,5E0,1E11,9.0834035E10,4.06875E0,4.1225E0,5E0,3.9586208E0,5E0,3E0,1.3779237E10,2.7E1,3.7652779E0,3.6916666E0,6.236934E9,1.9054606E10,1E1,4.0666666E0,1.685993E11,1.9083854E11,4.071875E0,3.7039584E11,4.0101852E0,4.4848323E11,1.3722757E10,4E0,2.4112853E10,4E0,7.376343E10,1.0677711E10,3.1332858E10,4E0,3E0,7.438558E10,3.4E1,1.4E1,4.1074683E12,2E0,1E0,1.4E1,2.3E1,4.2083335E0,2E1,6E0,-2.0749988E-2,-3.3745468E-2,2.5617912E-2,-5.639905E-3,-6.6666916E-2,-3.7334304E-2,-4.561627E-2,-6.081216E-3,-6.69326E-2,3.9163966E-2,-6.0383815E-2,-3.9816134E-2,-5.2903384E-2,-4.0014368E-2,-2.7542515E-2,1.0751159E-2,-6.042954E-2,-4.5586158E-2,-5.2209925E-2,-3.7803058E-2,5.4734545E-3,-2.562888E-2,-4.5404658E-2,-2.4499476E-2,-2.7792132E-2,-1.8483575E-2,-3.6889385E-4,6.5038204E-2,-1.3022398E-2,5.139772E-3,-3.5333205E-3,1.2119825E-2,-5.901901E-2,-3.141731E-2,-1.5040949E-2,1.0747798E-2,-9.591806E-3,1.12835495E-2,-5.145565E-3,8.863707E-3,-2.6367882E-3,1.5527636E-2,8.885542E-3,2.3870993E-2,-1.9837884E-2,1.722872E-2,2.6207203E-2,4.8065398E-2,2.5734106E-2,8.150947E-3,2.126052E-2,2.9888889E-2,-1.8575674E-2,2.4115276E-2,3.5070784E-2,4.4180322E-2,2.1947611E-2,-1.9061565E-2,4.328869E-2,5.5084497E-2,5.0285935E-2,6.0389187E-2,5.884276E-2,7.181802E-2],"split_indices":[32,33,26,31,30,17,23,22,20,16,23,21,31,31,11,5,30,32,26,24,31,5,17,26,30,31,30,23,19,16,27,14,14,20,5,0,30,32,24,26,32,22,32,24,0,5,19,24,5,5,27,15,5,27,27,29,11,19,31,23,30,31,15,0,0,0,0,0,0,0,0,0,0,0,0,0,0,0,0,0,0,0,0,0,0,0,0,0,0,0,0,0,0,0,0,0,0,0,0,0,0,0,0,0,0,0,0,0,0,0,0,0,0,0,0,0,0,0,0,0,0,0,0,0,0,0,0],"split_type":[0,0,0,0,0,0,0,0,0,0,0,0,0,0,0,0,0,0,0,0,0,0,0,0,0,0,0,0,0,0,0,0,0,0,0,0,0,0,0,0,0,0,0,0,0,0,0,0,0,0,0,0,0,0,0,0,0,0,0,0,0,0,0,0,0,0,0,0,0,0,0,0,0,0,0,0,0,0,0,0,0,0,0,0,0,0,0,0,0,0,0,0,0,0,0,0,0,0,0,0,0,0,0,0,0,0,0,0,0,0,0,0,0,0,0,0,0,0,0,0,0,0,0,0,0,0,0],"sum_hessian":[6.061727E5,2.2724228E5,3.789304E5,1.05172945E5,1.2206934E5,2.674078E5,1.1152261E5,5.2142594E4,5.303035E4,3.8413258E4,8.3656086E4,8.782301E4,1.795848E5,5.0226984E4,6.129563E4,7.9173013E3,4.4225293E4,4.0974875E4,1.2055478E4,1.7965686E4,2.0447574E4,4.7691023E4,3.5965062E4,3.4629465E4,5.3193543E4,8.959062E4,8.999418E4,1.6604957E4,3.362203E4,1.617365E4,4.5121977E4,7.5323936E3,3.8490765E2,6.18511E3,3.8040184E4,2.5295152E4,1.5679722E4,1.1035156E4,1.0203211E3,4.347786E3,1.3617899E4,4.0373608E3,1.6410213E4,4.545461E4,2.236412E3,1.4721457E4,2.1243604E4,5.5765156E3,2.9052947E4,2.2467188E4,3.0726355E4,3.1890527E4,5.7700086E4,1.5955056E4,7.4039125E4,5.419563E3,1.1185394E4,2.9554075E3,3.0666621E4,9.024109E2,1.527124E4,1.8240658E4,2.6881318E4,4.0199485E3,3.5124453E3,2.2253368E2,1.6237398E2,5.6128125E3,5.7229724E2,3.7036168E4,1.0040171E3,2.5270594E4,2.4558222E1,1.4387415E4,1.2923069E3,5.6104844E3,5.424672E3,8.5402673E2,1.6629434E2,3.6348499E3,7.1293616E2,3.9211812E3,9.696718E3,2.628363E3,1.4089979E3,3.2041548E3,1.3206059E4,1.6061808E4,2.9392803E4,2.1642375E3,7.217455E1,1.377302E4,9.484372E2,1.9157506E4,2.0860981E3,1.3207446E3,4.255771E3,2.7316066E4,1.7368811E3,2.0475053E4,1.992135E3,1.0123977E4,2.0602379E4,2.9482008E4,2.4085188E3,5.1886574E4,5.813513E3,3.485418E3,1.2469638E4,4.8110613E4,2.5928512E4,6.686762E2,4.750887E3,6.3307417E3,4.854652E3,2.7802863E2,2.677379E3,1.1181953E4,1.948467E4,6.8169196E2,2.207189E2,5.76017E3,9.51107E3,4.1969956E3,1.4043663E4,2.7103928E3,2.4170926E4],"tree_param":{"num_deleted":"0","num_feature":"34","num_nodes":"127","size_leaf_vector":"1"}},{"base_weights":[8.958353E-7,-6.6904676E-1,4.0037036E-1,-1.0167675E0,-4.1173288E-1,1.9874316E-1,9.710542E-1,-8.116865E-1,-1.1723138E0,-6.6844493E-1,-2.8032434E-1,-6.3696645E-2,3.99931E-1,6.683059E-1,1.1925687E0,-4.328372E-1,-8.79813E-1,-1.2763333E0,-1.0040687E0,-8.85538E-1,-4.7337374E-1,-4.4115895E-1,-1.5250011E-1,-3.3182293E-1,4.0963415E-2,1.7493394E-1,6.4094365E-1,4.708356E-1,7.7944845E-1,1.0175756E0,1.3015074E0,-4.7034845E-1,2.6667896E-1,-8.985038E-1,-7.709329E-3,-1.3393121E0,-1.1792048E0,-7.2186136E-1,-1.0645368E0,-1.1966082E0,-8.229281E-1,-1.2618425E-1,-5.5874246E-1,-4.623616E-1,9.382714E-2,-2.5656283E-1,-5.6144632E-2,-7.5341254E-1,-2.585506E-1,-6.2504716E-2,1.771195E-1,3.593736E-2,2.8561065E-1,2.2172119E-1,7.3917943E-1,3.0738854E-1,5.7732725E-1,6.355063E-1,8.5592693E-1,2.0975785E-1,1.0465199E0,1.1390958E0,1.3963754E0,-1.7548539E-2,-2.9528165E-2,-3.180435E-2,1.6790364E-2,-4.4996805E-2,-5.5406815E-3,-4.767263E-3,5.2886125E-2,-1.3078888E-2,-6.710617E-2,-3.6654674E-2,-6.0409278E-2,-1.4447282E-2,-3.832275E-2,-5.6461837E-2,-4.1887168E-2,-3.1701118E-2,-6.1428554E-2,-4.4845127E-2,-2.906985E-2,5.521533E-3,-2.608417E-2,-4.2140458E-2,-2.3253577E-2,-2.4990534E-2,-1.4292029E-2,1.871299E-3,6.727054E-2,-2.6304929E-2,-1.1375378E-2,-5.5707074E-3,5.030674E-3,-4.8944067E-2,-2.4444934E-2,-1.4357798E-2,9.851752E-3,-4.72866E-3,1.4783819E-2,2.6462753E-3,1.6235158E-2,4.2108406E-4,1.7087178E-2,1.2741995E-2,2.7001128E-2,-1.32523505E-2,1.9564893E-2,2.9870406E-2,4.996645E-2,-1.2717887E-2,1.7858962E-2,2.0108055E-2,3.2633763E-2,2.9184131E-2,3.603927E-2,-1.0655779E-2,4.3374013E-2,2.5675917E-2,-1.4740372E-2,3.956839E-2,5.4453064E-2,4.908537E-2,5.963506E-2,6.629106E-2,7.2883844E-2],"categories":[],"categories_nodes":[],"categories_segments":[],"categories_sizes":[],"default_left":[0,0,0,0,0,0,0,0,0,0,0,0,0,0,0,0,0,0,0,0,0,0,0,0,0,0,0,0,0,0,0,0,0,0,0,0,0,0,0,0,0,0,0,0,0,0,0,0,0,0,0,0,0,0,0,0,0,0,0,0,0,0,0,0,0,0,0,0,0,0,0,0,0,0,0,0,0,0,0,0,0,0,0,0,0,0,0,0,0,0,0,0,0,0,0,0,0,0,0,0,0,0,0,0,0,0,0,0,0,0,0,0,0,0,0,0,0,0,0,0,0,0,0,0,0,0,0],"id":7,"left_children":[1,3,5,7,9,11,13,15,17,19,21,23,25,27,29,31,33,35,37,39,41,43,45,47,49,51,53,55,57,59,61,63,65,67,69,71,73,75,77,79,81,83,85,87,89,91,93,95,97,99,101,103,105,107,109,111,113,115,117,119,121,123,125,-1,-1,-1,-1,-1,-1,-1,-1,-1,-1,-1,-1,-1,-1,-1,-1,-1,-1,-1,-1,-1,-1,-1,-1,-1,-1,-1,-1,-1,-1,-1,-1,-1,-1,-1,-1,-1,-1,-1,-1,-1,-1,-1,-1,-1,-1,-1,-1,-1,-1,-1,-1,-1,-1,-1,-1,-1,-1,-1,-1,-1,-1,-1,-1],"loss_changes":[1.6161777E5,2.0210164E4,4.3433395E4,3.0634844E3,4.379172E3,1.4727147E4,6.6079844E3,1.0691211E3,9.547422E2,1.8609395E3,1.7652461E3,3.396597E3,8.56166E3,9.135254E2,1.0835E3,1.6590332E2,5.7248047E2,2.0489453E2,3.5546094E2,4.0414062E2,6.861631E2,4.3134814E2,4.797295E2,1.0495266E3,1.2264598E3,1.2561924E3,3.1391953E3,2.60886E2,2.9274902E2,5.1039453E2,5.387383E2,8.585022E1,2.0320154E1,3.869336E1,6.9001396E1,6.166797E1,1.7087695E2,7.095239E1,2.5128516E2,6.1853027E1,3.0892383E2,4.2778912E2,4.9408594E2,2.4163232E2,1.0232998E2,1.8002136E2,2.1525664E2,2.9956885E2,3.773595E2,5.68226E2,6.889895E2,3.0459274E2,3.557439E2,1.1947859E3,2.2771445E3,1.6564832E2,1.1958594E2,4.0450684E1,2.1503906E2,1.1612158E2,2.2798242E2,1.0797266E2,9.379297E1,0E0,0E0,0E0,0E0,0E0,0E0,0E0,0E0,0E0,0E0,0E0,0E0,0E0,0E0,0E0,0E0,0E0,0E0,0E0,0E0,0E0,0E0,0E0,0E0,0E0,0E0,0E0,0E0,0E0,0E0,0E0,0E0,0E0,0E0,0E0,0E0,0E0,0E0,0E0,0E0,0E0,0E0,0E0,0E0,0E0,0E0,0E0,0E0,0E0,0E0,0E0,0E0,0E0,0E0,0E0,0E0,0E0,0E0,0E0,0E0,0E0,0E0,0E0,0E0],"parents":[2147483647,0,0,1,1,2,2,3,3,4,4,5,5,6,6,7,7,8,8,9,9,10,10,11,11,12,12,13,13,14,14,15,15,16,16,17,17,18,18,19,19,20,20,21,21,22,22,23,23,24,24,25,25,26,26,27,27,28,28,29,29,30,30,31,31,32,32,33,33,34,34,35,35,36,36,37,37,38,38,39,39,40,40,41,41,42,42,43,43,44,44,45,45,46,46,47,47,48,48,49,49,50,50,51,51,52,52,53,53,54,54,55,55,56,56,57,57,58,58,59,59,60,60,61,61,62,62],"right_children":[2,4,6,8,10,12,14,16,18,20,22,24,26,28,30,32,34,36,38,40,42,44,46,48,50,52,54,56,58,60,62,64,66,68,70,72,74,76,78,80,82,84,86,88,90,92,94,96,98,100,102,104,106,108,110,112,114,116,118,120,122,124,126,-1,-1,-1,-1,-1,-1,-1,-1,-1,-1,-1,-1,-1,-1,-1,-1,-1,-1,-1,-1,-1,-1,-1,-1,-1,-1,-1,-1,-1,-1,-1,-1,-1,-1,-1,-1,-1,-1,-1,-1,-1,-1,-1,-1,-1,-1,-1,-1,-1,-1,-1,-1,-1,-1,-1,-1,-1,-1,-1,-1,-1,-1,-1,-1],"split_conditions":[1.6015938E12,1E11,4.175E0,1E0,4.0866666E0,7.177943E10,1.2E1,3.965625E0,2.6546055E10,3.5919016E10,2E0,1E11,1E1,7E0,6E0,5.1522863E10,1.9408858E11,7.046931E9,3E0,9.817479E9,5E0,4.2E0,7.177943E10,4.0666666E0,4.1316667E0,5E0,3.9691668E0,5E0,1.4E1,1.3779237E10,3.5E1,3.6458333E0,2.56E1,6.2E1,3E0,2.9593537E0,2E0,3.9083333E0,1.685993E11,2E0,4.075E0,4.0034723E0,4.4848323E11,4.1041665E0,4E0,1.3722757E10,3E0,9E0,1.0677711E10,5.1522863E10,8E0,8.850568E10,1.3931568E11,2.9E1,1.6E1,1.4539282E10,1.4019943E11,4.1983333E0,2E0,3.3E1,7E0,1.9E1,1.461504E10,-1.7548539E-2,-2.9528165E-2,-3.180435E-2,1.6790364E-2,-4.4996805E-2,-5.5406815E-3,-4.767263E-3,5.2886125E-2,-1.3078888E-2,-6.710617E-2,-3.6654674E-2,-6.0409278E-2,-1.4447282E-2,-3.832275E-2,-5.6461837E-2,-4.1887168E-2,-3.1701118E-2,-6.1428554E-2,-4.4845127E-2,-2.906985E-2,5.521533E-3,-2.608417E-2,-4.2140458E-2,-2.3253577E-2,-2.4990534E-2,-1.4292029E-2,1.871299E-3,6.727054E-2,-2.6304929E-2,-1.1375378E-2,-5.5707074E-3,5.030674E-3,-4.8944067E-2,-2.4444934E-2,-1.4357798E-2,9.851752E-3,-4.72866E-3,1.4783819E-2,2.6462753E-3,1.6235158E-2,4.2108406E-4,1.7087178E-2,1.2741995E-2,2.7001128E-2,-1.32523505E-2,1.9564893E-2,2.9870406E-2,4.996645E-2,-1.2717887E-2,1.7858962E-2,2.0108055E-2,3.2633763E-2,2.9184131E-2,3.603927E-2,-1.0655779E-2,4.3374013E-2,2.5675917E-2,-1.4740372E-2,3.956839E-2,5.4453064E-2,4.908537E-2,5.963506E-2,6.629106E-2,7.2883844E-2],"split_indices":[32,33,30,31,30,13,23,26,33,16,27,21,31,23,15,5,5,20,31,25,31,2,17,22,30,27,30,23,31,16,31,14,4,3,0,22,31,18,32,31,18,22,32,14,0,24,19,19,5,5,31,5,5,23,27,20,12,30,19,31,19,27,5,0,0,0,0,0,0,0,0,0,0,0,0,0,0,0,0,0,0,0,0,0,0,0,0,0,0,0,0,0,0,0,0,0,0,0,0,0,0,0,0,0,0,0,0,0,0,0,0,0,0,0,0,0,0,0,0,0,0,0,0,0,0,0,0],"split_type":[0,0,0,0,0,0,0,0,0,0,0,0,0,0,0,0,0,0,0,0,0,0,0,0,0,0,0,0,0,0,0,0,0,0,0,0,0,0,0,0,0,0,0,0,0,0,0,0,0,0,0,0,0,0,0,0,0,0,0,0,0,0,0,0,0,0,0,0,0,0,0,0,0,0,0,0,0,0,0,0,0,0,0,0,0,0,0,0,0,0,0,0,0,0,0,0,0,0,0,0,0,0,0,0,0,0,0,0,0,0,0,0,0,0,0,0,0,0,0,0,0,0,0,0,0,0,0],"sum_hessian":[6.0335056E5,2.2588273E5,3.774678E5,9.606392E4,1.2981881E5,2.789233E5,9.85445E4,4.1437125E4,5.4626797E4,4.3952227E4,8.5866586E4,1.2103704E5,1.5788627E5,4.1639277E4,5.690522E4,6.3168228E3,3.5120305E4,3.375239E4,2.0874406E4,2.080026E4,2.3151965E4,3.8022453E4,4.7844133E4,3.3980633E4,8.705641E4,8.16571E4,7.6229164E4,1.4997686E4,2.6641594E4,2.1837307E4,3.5067914E4,5.995637E3,3.211859E2,3.4383375E4,7.3692944E2,2.0468018E4,1.3284372E4,3.6857537E3,1.7188652E4,3.4820383E3,1.7318223E4,4.569709E3,1.8582256E4,3.6573117E4,1.4493358E3,2.3001322E4,2.484281E4,5.030008E3,2.8950627E4,4.946634E4,3.7590062E4,3.6198047E4,4.5459055E4,1.4472186E4,6.175698E4,5.9181665E3,9.079519E3,9.246956E3,1.7394639E4,7.556548E2,2.1081652E4,1.2935582E4,2.2132332E4,3.01026E3,2.985377E3,2.2261766E1,2.9892416E2,3.4320824E4,6.2551167E1,6.817623E2,5.5167103E1,5.34965E1,2.0414521E4,8.1195355E2,1.2472419E4,3.449038E2,3.3408499E3,1.3370364E4,3.8182886E3,1.8831433E2,3.2937239E3,1.3255658E4,4.0625635E3,2.8596123E3,1.7100968E3,4.606022E3,1.3976233E4,3.0170574E4,6.402542E3,1.3878251E3,6.1510834E1,2.236548E3,2.0764775E4,1.8367217E4,6.475594E3,2.7139585E3,2.3160493E3,2.7240611E4,1.7100151E3,4.5402152E4,4.0641863E3,2.0413303E4,1.7176762E4,3.3210848E4,2.9872014E3,4.055588E4,4.9031753E3,3.7389631E3,1.0733223E4,3.9975305E4,2.1781674E4,4.8151608E2,5.4366504E3,2.7327827E3,6.346736E3,5.7565664E3,3.4903892E3,1.8579071E2,1.7208848E4,4.7167645E2,2.8397833E2,3.0154443E3,1.8066207E4,3.291338E3,9.644244E3,1.0300119E4,1.1832213E4],"tree_param":{"num_deleted":"0","num_feature":"34","num_nodes":"127","size_leaf_vector":"1"}},{"base_weights":[2.0061127E-6,-5.867817E-1,4.1693246E-1,-9.011957E-1,-2.8452295E-1,1.967988E-1,8.9791554E-1,-7.600359E-1,-1.1069854E0,-6.283101E-1,-1.8822823E-1,7.6718843E-3,3.9915004E-1,6.1912435E-1,1.138963E0,-8.6495346E-1,-4.742715E-1,-1.1808674E0,-8.793926E-1,-1.0463039E0,-5.4904133E-1,-3.200117E-1,-5.1646024E-2,-1.142593E-1,1.1839944E-1,-3.1945728E-2,5.3370094E-1,4.34398E-1,7.334444E-1,9.6528876E-1,1.2552017E0,-7.7723867E-1,-1.1677135E0,3.9372066E-1,-4.955384E-1,-1.2518378E0,-1.1106356E0,-9.189597E-1,-3.224874E-1,-3.770678E-1,-1.0829986E0,-5.73072E-1,4.271535E-2,-3.428192E-1,1.0058764E-1,-1.6630745E-1,7.541569E-2,-1.3915372E-1,2.181236E-1,9.141498E-2,3.8713762E-1,-4.8844483E-1,1.9555391E-1,3.7071428E-1,7.9986143E-1,8.5137956E-2,4.7835293E-1,5.464976E-1,7.8113955E-1,5.583633E-1,1.0168676E0,1.0996605E0,1.349856E0,-2.0616172E-2,-4.2162675E-2,-6.718656E-2,-4.6895318E-2,2.9061309E-3,2.539434E-2,-2.5738293E-2,-6.012113E-5,-6.269445E-2,3.6686372E-2,-5.616635E-2,-3.1315498E-2,-5.2075088E-2,-3.814329E-2,-7.716059E-2,-1.2812796E-2,-2.3330634E-2,8.897911E-2,-5.5147465E-2,-4.323279E-3,-3.42735E-2,-2.307438E-2,-1.0260008E-4,6.188752E-2,-2.2006175E-2,-1.3162019E-2,2.488754E-3,4.7994073E-2,-1.1564364E-2,-4.734917E-3,2.2565685E-3,2.0337066E-2,-1.12641E-2,-3.179662E-3,7.3065395E-3,3.332954E-2,-1.3614844E-3,7.017077E-3,1.6745424E-2,3.732073E-2,-3.560333E-2,-9.137547E-3,-9.289852E-3,2.0678224E-2,1.6630901E-2,3.1210316E-2,2.227649E-2,4.621086E-2,-4.3204953E-3,1.0026947E-2,2.2341445E-2,3.38788E-2,1.6112342E-2,3.0056184E-2,3.7066016E-2,4.7017932E-2,2.2291472E-2,5.2084424E-2,3.748185E-2,5.276971E-2,4.9096726E-2,5.7695437E-2,6.377258E-2,7.070061E-2],"categories":[],"categories_nodes":[],"categories_segments":[],"categories_sizes":[],"default_left":[0,0,0,0,0,0,0,0,0,0,0,0,0,0,0,0,0,0,0,0,0,0,0,0,0,0,0,0,0,0,0,0,0,0,0,0,0,0,0,0,0,0,0,0,0,0,0,0,0,0,0,0,0,0,0,0,0,0,0,0,0,0,0,0,0,0,0,0,0,0,0,0,0,0,0,0,0,0,0,0,0,0,0,0,0,0,0,0,0,0,0,0,0,0,0,0,0,0,0,0,0,0,0,0,0,0,0,0,0,0,0,0,0,0,0,0,0,0,0,0,0,0,0,0,0,0,0],"id":8,"left_children":[1,3,5,7,9,11,13,15,17,19,21,23,25,27,29,31,33,35,37,39,41,43,45,47,49,51,53,55,57,59,61,63,65,67,69,71,73,75,77,79,81,83,85,87,89,91,93,95,97,99,101,103,105,107,109,111,113,115,117,119,121,123,125,-1,-1,-1,-1,-1,-1,-1,-1,-1,-1,-1,-1,-1,-1,-1,-1,-1,-1,-1,-1,-1,-1,-1,-1,-1,-1,-1,-1,-1,-1,-1,-1,-1,-1,-1,-1,-1,-1,-1,-1,-1,-1,-1,-1,-1,-1,-1,-1,-1,-1,-1,-1,-1,-1,-1,-1,-1,-1,-1,-1,-1,-1,-1,-1],"loss_changes":[1.4686861E5,2.369829E4,3.715947E4,3.5497266E3,4.2089424E3,9.214168E3,7.4044062E3,2.1732773E3,8.351133E2,9.2120703E2,1.787749E3,1.6802466E3,6.7469043E3,1.0787637E3,1.1917891E3,1.4073633E3,3.596421E2,1.8571484E2,2.683203E2,1.0847217E2,3.3259766E2,4.8495215E2,7.106239E2,4.901247E2,4.7294257E2,2.873652E3,3.845332E3,2.9987354E2,2.81E2,4.9682422E2,5.1966797E2,9.902246E2,4.805127E2,1.783397E1,1.8065674E2,7.692578E1,1.1531641E2,2.169043E2,6.510864E1,4.56335E1,8.345996E1,2.8155713E2,4.887886E1,3.711787E2,1.1351554E2,1.19280396E2,2.3214035E2,3.5859167E2,1.3316159E2,3.4407224E2,1.1142261E2,6.289978E2,1.5354109E3,5.307622E2,1.4830684E3,4.327424E1,1.08674805E2,7.84386E1,1.587207E2,1.4465564E2,2.1573438E2,8.442676E1,1.0321875E2,0E0,0E0,0E0,0E0,0E0,0E0,0E0,0E0,0E0,0E0,0E0,0E0,0E0,0E0,0E0,0E0,0E0,0E0,0E0,0E0,0E0,0E0,0E0,0E0,0E0,0E0,0E0,0E0,0E0,0E0,0E0,0E0,0E0,0E0,0E0,0E0,0E0,0E0,0E0,0E0,0E0,0E0,0E0,0E0,0E0,0E0,0E0,0E0,0E0,0E0,0E0,0E0,0E0,0E0,0E0,0E0,0E0,0E0,0E0,0E0,0E0,0E0,0E0,0E0],"parents":[2147483647,0,0,1,1,2,2,3,3,4,4,5,5,6,6,7,7,8,8,9,9,10,10,11,11,12,12,13,13,14,14,15,15,16,16,17,17,18,18,19,19,20,20,21,21,22,22,23,23,24,24,25,25,26,26,27,27,28,28,29,29,30,30,31,31,32,32,33,33,34,34,35,35,36,36,37,37,38,38,39,39,40,40,41,41,42,42,43,43,44,44,45,45,46,46,47,47,48,48,49,49,50,50,51,51,52,52,53,53,54,54,55,55,56,56,57,57,58,58,59,59,60,60,61,61,62,62],"right_children":[2,4,6,8,10,12,14,16,18,20,22,24,26,28,30,32,34,36,38,40,42,44,46,48,50,52,54,56,58,60,62,64,66,68,70,72,74,76,78,80,82,84,86,88,90,92,94,96,98,100,102,104,106,108,110,112,114,116,118,120,122,124,126,-1,-1,-1,-1,-1,-1,-1,-1,-1,-1,-1,-1,-1,-1,-1,-1,-1,-1,-1,-1,-1,-1,-1,-1,-1,-1,-1,-1,-1,-1,-1,-1,-1,-1,-1,-1,-1,-1,-1,-1,-1,-1,-1,-1,-1,-1,-1,-1,-1,-1,-1,-1,-1,-1,-1,-1,-1,-1,-1,-1,-1,-1,-1,-1],"split_conditions":[4.4848323E11,3.2752327E11,4.1666665E0,3E0,4.06E0,8E0,1.2E1,6.018776E10,5.1522863E10,8.1004085E10,2.6546055E10,4E0,4.0108695E0,1.2E1,4E0,1E0,3.8093333E0,3.7470626E10,4.079167E0,4E0,1E11,7.177943E10,5E0,4.560066E10,7.438558E10,3.9E1,1.2E1,7E0,7E0,6.9714715E10,2.8E1,3.965625E0,6.379696E9,8.555862E10,1.233023E11,1E1,4.0783334E0,4.476836E9,1.0444689E11,1.1005252E9,4.1E0,8.5821175E11,2.6E1,4.424474E10,3E0,4.1091666E0,1E11,2E0,2E0,4.1041665E0,4E0,2.5518965E10,4.0862834E12,7.177943E10,3E0,1.04961494E12,7.438558E10,8E0,1.461504E10,3.990694E10,7E0,1.9E1,1.461504E10,-2.0616172E-2,-4.2162675E-2,-6.718656E-2,-4.6895318E-2,2.9061309E-3,2.539434E-2,-2.5738293E-2,-6.012113E-5,-6.269445E-2,3.6686372E-2,-5.616635E-2,-3.1315498E-2,-5.2075088E-2,-3.814329E-2,-7.716059E-2,-1.2812796E-2,-2.3330634E-2,8.897911E-2,-5.5147465E-2,-4.323279E-3,-3.42735E-2,-2.307438E-2,-1.0260008E-4,6.188752E-2,-2.2006175E-2,-1.3162019E-2,2.488754E-3,4.7994073E-2,-1.1564364E-2,-4.734917E-3,2.2565685E-3,2.0337066E-2,-1.12641E-2,-3.179662E-3,7.3065395E-3,3.332954E-2,-1.3614844E-3,7.017077E-3,1.6745424E-2,3.732073E-2,-3.560333E-2,-9.137547E-3,-9.289852E-3,2.0678224E-2,1.6630901E-2,3.1210316E-2,2.227649E-2,4.621086E-2,-4.3204953E-3,1.0026947E-2,2.2341445E-2,3.38788E-2,1.6112342E-2,3.0056184E-2,3.7066016E-2,4.7017932E-2,2.2291472E-2,5.2084424E-2,3.748185E-2,5.276971E-2,4.9096726E-2,5.7695437E-2,6.377258E-2,7.070061E-2],"split_indices":[20,32,30,31,30,31,23,32,20,24,20,27,30,31,11,31,30,32,26,31,5,5,31,5,5,31,27,31,23,13,27,26,33,13,5,0,30,8,32,8,26,32,0,25,0,30,5,19,0,14,15,9,32,5,15,16,5,27,5,5,19,27,5,0,0,0,0,0,0,0,0,0,0,0,0,0,0,0,0,0,0,0,0,0,0,0,0,0,0,0,0,0,0,0,0,0,0,0,0,0,0,0,0,0,0,0,0,0,0,0,0,0,0,0,0,0,0,0,0,0,0,0,0,0,0,0,0],"split_type":[0,0,0,0,0,0,0,0,0,0,0,0,0,0,0,0,0,0,0,0,0,0,0,0,0,0,0,0,0,0,0,0,0,0,0,0,0,0,0,0,0,0,0,0,0,0,0,0,0,0,0,0,0,0,0,0,0,0,0,0,0,0,0,0,0,0,0,0,0,0,0,0,0,0,0,0,0,0,0,0,0,0,0,0,0,0,0,0,0,0,0,0,0,0,0,0,0,0,0,0,0,0,0,0,0,0,0,0,0,0,0,0,0,0,0,0,0,0,0,0,0,0,0,0,0,0,0],"sum_hessian":[6.0032425E5,2.4936711E5,3.5095716E5,1.2222493E5,1.2714219E5,2.4076608E5,1.1019107E5,7.2499305E4,4.972563E4,2.781889E4,9.93233E4,1.2445017E5,1.1631591E5,5.109689E4,5.909418E4,5.302814E4,1.9471162E4,3.7536285E4,1.2189346E4,4.432674E3,2.3386217E4,5.0548977E4,4.8774316E4,5.9228633E4,6.5221535E4,2.7668361E4,8.864755E4,1.9535252E4,3.1561637E4,2.3697154E4,3.5397023E4,4.1118863E4,1.1909277E4,4.6524014E2,1.9005922E4,1.8661611E4,1.8874672E4,1.1380156E4,8.091891E2,2.3099992E2,4.201674E3,2.2473615E4,9.1260077E2,4.7949066E4,2.59991E3,2.5638047E4,2.3136271E4,5.5102234E4,4.1264004E3,5.9271336E4,5.9501963E3,9.202183E3,1.846618E4,5.498139E4,3.3666156E4,2.1840466E3,1.7351205E4,6.417993E3,2.5143645E4,2.6671143E3,2.1030041E4,1.3396235E4,2.200079E4,6.300176E3,3.4818688E4,6.7411426E3,5.1681343E3,1.1847753E2,3.467626E2,1.8294314E4,7.1160754E2,1.864272E4,1.8889948E1,1.8391424E4,4.832494E2,6.3720674E3,5.008089E3,4.0496185E1,7.686929E2,2.2254347E2,8.456447E0,4.1191025E3,8.2571236E1,1.1193427E4,1.1280189E4,8.806104E2,3.1990368E1,2.1570012E4,2.6379053E4,2.4557522E3,1.441579E2,1.3440021E4,1.2198025E4,2.1199682E4,1.936589E3,2.5749484E4,2.935275E4,3.5567568E3,5.696435E2,1.7305857E4,4.196548E4,5.1966724E3,7.53524E2,5.313738E3,3.8884443E3,6.716905E3,1.1749274E4,4.780004E4,7.1813525E3,8.747148E3,2.4919008E4,8.7844965E2,1.305597E3,1.498353E4,2.367675E3,1.258501E3,5.159492E3,2.0117979E4,5.025665E3,2.1649626E3,5.021515E2,2.652439E3,1.8377602E4,4.2317817E3,9.164454E3,1.0196441E4,1.1804348E4],"tree_param":{"num_deleted":"0","num_feature":"34","num_nodes":"127","size_leaf_vector":"1"}},{"base_weights":[4.001027E-6,-6.135389E-1,3.6547425E-1,-9.408761E-1,-3.7578997E-1,1.8097115E-1,8.9777464E-1,-7.444386E-1,-1.092069E0,-6.1351335E-1,-2.551286E-1,-1.2673546E-1,3.2501742E-1,6.3458353E-1,1.1319284E0,-3.92672E-1,-8.084948E-1,-1.1944355E0,-9.2834365E-1,-8.18075E-1,-4.316501E-1,-4.0236092E-1,-1.3850029E-1,-3.2777098E-1,-3.3330638E-2,1.2810658E-1,5.4542905E-1,4.28095E-1,7.357256E-1,8.982017E-1,1.2054344E0,-4.2861366E-1,2.737787E-1,-8.268582E-1,3.4877878E-2,-1.2568328E0,-1.0986377E0,-6.584693E-1,-9.867983E-1,-1.1184384E0,-7.5830656E-1,-1.07133046E-1,-5.1179427E-1,-4.2180756E-1,8.640763E-2,-2.1120407E-1,-2.1462243E-2,-4.2798275E-1,-1.772173E-1,-2.327199E-1,3.8220342E-2,1.8745473E-2,2.3239098E-1,1.6195273E-1,6.287551E-1,2.7590692E-1,5.276135E-1,5.7623583E-1,8.060962E-1,1.6067073E-1,9.3852884E-1,1.0591097E0,1.2898095E0,-1.5711546E-2,-2.7202541E-2,-2.926144E-2,1.6977532E-2,-4.14132E-2,-3.215056E-3,-2.4320802E-3,5.24185E-2,-9.345542E-3,-6.2984616E-2,-3.3088356E-2,-5.6373145E-2,-3.8772378E-2,-2.482253E-2,-5.2499503E-2,-3.8393475E-2,-5.859358E-2,-3.990395E-2,-4.1389868E-2,-2.6658205E-2,5.6772707E-3,-2.3886776E-2,-4.3677103E-2,-2.2424413E-2,-2.2120634E-2,-6.290547E-3,1.673952E-3,6.367802E-2,-2.4041947E-2,-9.4583025E-3,-2.3380646E-3,1.5959555E-2,-3.7031744E-2,-1.5219665E-2,-1.5325694E-2,1.3951089E-3,-9.2964675E-3,-1.839476E-2,2.449965E-4,1.9743368E-2,-2.0940304E-3,7.004851E-3,1.0321159E-2,2.2465816E-2,-1.0403453E-2,1.7839495E-2,2.4614302E-2,4.425163E-2,-1.142807E-2,1.6036347E-2,1.8036019E-2,2.9979596E-2,2.7396858E-2,3.6186866E-2,1.7790917E-2,4.1531216E-2,2.3316232E-2,-2.0207552E-2,4.355025E-2,5.6258958E-2,5.0872017E-2,5.9843864E-2,6.0661424E-2,6.812103E-2],"categories":[],"categories_nodes":[],"categories_segments":[],"categories_sizes":[],"default_left":[0,0,0,0,0,0,0,0,0,0,0,0,0,0,0,0,0,0,0,0,0,0,0,0,0,0,0,0,0,0,0,0,0,0,0,0,0,0,0,0,0,0,0,0,0,0,0,0,0,0,0,0,0,0,0,0,0,0,0,0,0,0,0,0,0,0,0,0,0,0,0,0,0,0,0,0,0,0,0,0,0,0,0,0,0,0,0,0,0,0,0,0,0,0,0,0,0,0,0,0,0,0,0,0,0,0,0,0,0,0,0,0,0,0,0,0,0,0,0,0,0,0,0,0,0,0,0],"id":9,"left_children":[1,3,5,7,9,11,13,15,17,19,21,23,25,27,29,31,33,35,37,39,41,43,45,47,49,51,53,55,57,59,61,63,65,67,69,71,73,75,77,79,81,83,85,87,89,91,93,95,97,99,101,103,105,107,109,111,113,115,117,119,121,123,125,-1,-1,-1,-1,-1,-1,-1,-1,-1,-1,-1,-1,-1,-1,-1,-1,-1,-1,-1,-1,-1,-1,-1,-1,-1,-1,-1,-1,-1,-1,-1,-1,-1,-1,-1,-1,-1,-1,-1,-1,-1,-1,-1,-1,-1,-1,-1,-1,-1,-1,-1,-1,-1,-1,-1,-1,-1,-1,-1,-1,-1,-1,-1,-1],"loss_changes":[1.3390042E5,1.7348164E4,3.6753598E4,2.7847031E3,3.703877E3,1.2318004E4,5.9355938E3,9.188867E2,8.8708594E2,1.61704E3,1.4708091E3,1.6639637E3,8.215555E3,9.46875E2,8.7466406E2,1.5069135E2,5.3447266E2,1.9351172E2,3.2104297E2,3.6645215E2,5.985703E2,3.598994E2,4.0671234E2,4.2404053E2,8.6319696E2,1.1402117E3,2.8538867E3,2.2572827E2,3.411836E2,3.6269336E2,4.7735938E2,7.858923E1,1.8406725E1,3.6154297E1,6.237905E1,6.0152344E1,1.6130176E2,6.848035E1,2.3105273E2,5.715381E1,2.6658398E2,3.7297345E2,4.22312E2,2.2202344E2,9.103924E1,1.751029E2,1.578652E2,6.5188794E2,2.979877E2,1.009939E2,5.2914185E2,3.5904758E2,2.8818994E2,1.1495936E3,2.565707E3,1.3344098E2,1.0809009E2,3.8517822E1,2.3295312E2,1.0958606E2,1.4480078E2,8.0225586E1,1.3507422E2,0E0,0E0,0E0,0E0,0E0,0E0,0E0,0E0,0E0,0E0,0E0,0E0,0E0,0E0,0E0,0E0,0E0,0E0,0E0,0E0,0E0,0E0,0E0,0E0,0E0,0E0,0E0,0E0,0E0,0E0,0E0,0E0,0E0,0E0,0E0,0E0,0E0,0E0,0E0,0E0,0E0,0E0,0E0,0E0,0E0,0E0,0E0,0E0,0E0,0E0,0E0,0E0,0E0,0E0,0E0,0E0,0E0,0E0,0E0,0E0,0E0,0E0,0E0,0E0],"parents":[2147483647,0,0,1,1,2,2,3,3,4,4,5,5,6,6,7,7,8,8,9,9,10,10,11,11,12,12,13,13,14,14,15,15,16,16,17,17,18,18,19,19,20,20,21,21,22,22,23,23,24,24,25,25,26,26,27,27,28,28,29,29,30,30,31,31,32,32,33,33,34,34,35,35,36,36,37,37,38,38,39,39,40,40,41,41,42,42,43,43,44,44,45,45,46,46,47,47,48,48,49,49,50,50,51,51,52,52,53,53,54,54,55,55,56,56,57,57,58,58,59,59,60,60,61,61,62,62],"right_children":[2,4,6,8,10,12,14,16,18,20,22,24,26,28,30,32,34,36,38,40,42,44,46,48,50,52,54,56,58,60,62,64,66,68,70,72,74,76,78,80,82,84,86,88,90,92,94,96,98,100,102,104,106,108,110,112,114,116,118,120,122,124,126,-1,-1,-1,-1,-1,-1,-1,-1,-1,-1,-1,-1,-1,-1,-1,-1,-1,-1,-1,-1,-1,-1,-1,-1,-1,-1,-1,-1,-1,-1,-1,-1,-1,-1,-1,-1,-1,-1,-1,-1,-1,-1,-1,-1,-1,-1,-1,-1,-1,-1,-1,-1,-1,-1,-1,-1,-1,-1,-1,-1,-1,-1,-1,-1],"split_conditions":[1.6015938E12,1E11,4.175E0,1E0,4.0866666E0,1E11,1.3E1,3.965625E0,2.6546055E10,3.5919016E10,2E0,4.102778E0,8E0,7E0,3E0,5.1522863E10,1.9408858E11,7.046931E9,3E0,9.817479E9,5E0,4.2E0,7.177943E10,7.177943E10,4E0,6E0,3.9586208E0,5E0,1.4E1,1E0,2.7E1,3.6458333E0,2.56E1,6.2E1,3E0,2.9593537E0,2E0,2.8416737E10,1.685993E11,4.084375E0,4.075E0,4.0034723E0,3.4217525E11,4.1125E0,4E0,1.3722757E10,1.233023E11,4.08E0,4.0333333E0,5.0437407E12,1.0677711E10,3E0,8.850568E10,5.7E1,1.8E1,1.4539282E10,1.4019943E11,5.5926624E10,3.8463492E10,2E1,1E11,4.3E1,1E0,-1.5711546E-2,-2.7202541E-2,-2.926144E-2,1.6977532E-2,-4.14132E-2,-3.215056E-3,-2.4320802E-3,5.24185E-2,-9.345542E-3,-6.2984616E-2,-3.3088356E-2,-5.6373145E-2,-3.8772378E-2,-2.482253E-2,-5.2499503E-2,-3.8393475E-2,-5.859358E-2,-3.990395E-2,-4.1389868E-2,-2.6658205E-2,5.6772707E-3,-2.3886776E-2,-4.3677103E-2,-2.2424413E-2,-2.2120634E-2,-6.290547E-3,1.673952E-3,6.367802E-2,-2.4041947E-2,-9.4583025E-3,-2.3380646E-3,1.5959555E-2,-3.7031744E-2,-1.5219665E-2,-1.5325694E-2,1.3951089E-3,-9.2964675E-3,-1.839476E-2,2.449965E-4,1.9743368E-2,-2.0940304E-3,7.004851E-3,1.0321159E-2,2.2465816E-2,-1.0403453E-2,1.7839495E-2,2.4614302E-2,4.425163E-2,-1.142807E-2,1.6036347E-2,1.8036019E-2,2.9979596E-2,2.7396858E-2,3.6186866E-2,1.7790917E-2,4.1531216E-2,2.3316232E-2,-2.0207552E-2,4.355025E-2,5.6258958E-2,5.0872017E-2,5.9843864E-2,6.0661424E-2,6.812103E-2],"split_indices":[32,33,30,31,30,17,23,26,33,16,27,22,27,23,11,5,5,20,31,25,31,2,13,21,31,31,30,23,31,15,27,14,4,3,0,22,31,20,32,26,18,22,32,6,0,24,5,30,30,24,5,19,5,31,31,20,12,5,16,23,5,4,0,0,0,0,0,0,0,0,0,0,0,0,0,0,0,0,0,0,0,0,0,0,0,0,0,0,0,0,0,0,0,0,0,0,0,0,0,0,0,0,0,0,0,0,0,0,0,0,0,0,0,0,0,0,0,0,0,0,0,0,0,0,0,0,0],"split_type":[0,0,0,0,0,0,0,0,0,0,0,0,0,0,0,0,0,0,0,0,0,0,0,0,0,0,0,0,0,0,0,0,0,0,0,0,0,0,0,0,0,0,0,0,0,0,0,0,0,0,0,0,0,0,0,0,0,0,0,0,0,0,0,0,0,0,0,0,0,0,0,0,0,0,0,0,0,0,0,0,0,0,0,0,0,0,0,0,0,0,0,0,0,0,0,0,0,0,0,0,0,0,0,0,0,0,0,0,0,0,0,0,0,0,0,0,0,0,0,0,0,0,0,0,0,0,0],"sum_hessian":[5.9715006E5,2.2291869E5,3.7423138E5,9.378744E4,1.2913126E5,2.779063E5,9.632507E4,4.0792992E4,5.299444E4,4.3474688E4,8.565657E4,8.861347E4,1.8929283E5,4.535233E4,5.097274E4,6.2851357E3,3.4507855E4,3.2603422E4,2.039102E4,2.0458855E4,2.3015832E4,3.785974E4,4.7796832E4,2.8109908E4,6.050356E4,9.997709E4,8.931574E4,1.491255E4,3.043978E4,1.2198497E4,3.8774242E4,5.963862E3,3.2127383E2,3.3772523E4,7.3533496E2,1.9736207E4,1.2867216E4,3.6325354E3,1.6758484E4,3.3924668E3,1.7066389E4,4.5588076E3,1.8457025E4,3.6411184E4,1.4485562E3,2.9481922E4,1.831491E4,1.687542E4,1.1234488E4,1.5977426E4,4.4526133E4,4.880128E4,5.1175812E4,1.594373E4,7.337201E4,5.897543E3,9.015007E3,9.321801E3,2.1117979E4,6.326747E2,1.1565822E4,1.4186054E4,2.4588188E4,2.9974814E3,2.9663804E3,2.2287846E1,2.98986E2,3.371029E4,6.2230774E1,6.802308E2,5.51042E1,5.2784004E1,1.9683422E4,7.9792377E2,1.2069292E4,2.1072825E3,1.5252528E3,1.3001833E4,3.756652E3,2.90524E3,4.872267E2,1.3039147E4,4.02724E3,2.8577998E3,1.7010082E3,2.7470188E3,1.5710006E4,3.4041004E4,2.370178E3,1.3877139E3,6.0842316E1,2.226002E3,2.725592E4,1.7049566E4,1.2653446E3,4.7794785E3,1.2095941E4,6.890552E3,4.343937E3,1.187077E4,4.106657E3,4.0722566E4,3.8035679E3,3.254351E4,1.6257773E4,4.570633E4,5.469485E3,5.4994575E3,1.0444272E4,4.7879074E4,2.5492934E4,4.808844E2,5.416658E3,2.7182732E3,6.2967334E3,7.825219E3,1.4965818E3,1.091741E3,2.0026238E4,4.10634E2,2.2204068E2,8.49741E3,3.068412E3,1.089817E4,3.2878838E3,1.19755625E4,1.2612626E4],"tree_param":{"num_deleted":"0","num_feature":"34","num_nodes":"127","size_leaf_vector":"1"}},{"base_weights":[4.7006815E-6,-5.872239E-1,3.4890783E-1,-9.059579E-1,-3.5807782E-1,1.7573687E-1,8.742214E-1,-7.1345586E-1,-1.0553222E0,-5.990616E-1,-2.4862684E-1,-5.5873506E-2,3.5291722E-1,5.9580886E-1,1.0804201E0,-3.7414694E-1,-7.7566046E-1,-1.1571983E0,-8.9343774E-1,-8.073314E-1,-4.2191407E-1,-3.9107326E-1,-1.38621E-1,-2.8738526E-1,3.3663746E-2,1.5237562E-1,5.671869E-1,3.833603E-1,6.847708E-1,9.0199524E-1,1.1948704E0,-4.0843284E-1,2.602929E-1,-7.934353E-1,3.323407E-2,-1.2192427E0,-1.0622514E0,-6.302559E-1,-9.508151E-1,-1.1396562E0,-7.474851E-1,-7.517065E-2,-5.006399E-1,-4.1152266E-1,3.54238E-2,-1.8164739E-1,4.745925E-2,-6.647718E-1,-2.2282994E-1,-6.049919E-2,1.5565434E-1,2.8791606E-2,2.4713267E-1,1.9174431E-1,6.517447E-1,-2.9012033E-1,4.214503E-1,5.719426E-1,7.834117E-1,7.0730597E-1,9.643703E-1,8.8153607E-1,1.2338647E0,-9.761463E-3,-2.3365125E-2,-2.7859379E-2,1.6147535E-2,-3.9739903E-2,-3.0580373E-3,-2.3110022E-3,5.0165594E-2,-8.902981E-3,-6.1103906E-2,-3.1688597E-2,-5.4540355E-2,-1.0934005E-2,-3.3661675E-2,-5.3183556E-2,-4.1570883E-2,-5.9897102E-2,-3.8275074E-2,-1.5207832E-2,-3.9368182E-2,5.3921025E-3,-2.623394E-2,-3.014254E-2,-1.4452733E-2,-2.1559246E-2,-6.313315E-3,-5.0519966E-4,5.9884835E-2,-1.5818944E-2,-7.1102814E-3,5.7657546E-4,2.1893388E-2,-4.3275114E-2,-1.9220304E-2,-1.2425518E-2,9.235716E-3,9.886576E-4,-8.980212E-3,4.0309215E-3,1.6856506E-2,9.506081E-4,3.7912667E-2,1.0996315E-2,2.3669064E-2,-1.03486115E-2,1.8002061E-2,2.552104E-2,4.364111E-2,-1.0241693E-3,-4.985121E-2,1.3871297E-2,2.5862752E-2,1.7884446E-2,2.9696895E-2,4.0305134E-2,2.3563644E-2,3.2939427E-2,4.5807924E-2,2.8403386E-2,4.9105812E-2,2.5031492E-2,4.9176924E-2,5.622531E-2,6.45682E-2],"categories":[],"categories_nodes":[],"categories_segments":[],"categories_sizes":[],"default_left":[0,0,0,0,0,0,0,0,0,0,0,0,0,0,0,0,0,0,0,0,0,0,0,0,0,0,0,0,0,0,0,0,0,0,0,0,0,0,0,0,0,0,0,0,0,0,0,0,0,0,0,0,0,0,0,0,0,0,0,0,0,0,0,0,0,0,0,0,0,0,0,0,0,0,0,0,0,0,0,0,0,0,0,0,0,0,0,0,0,0,0,0,0,0,0,0,0,0,0,0,0,0,0,0,0,0,0,0,0,0,0,0,0,0,0,0,0,0,0,0,0,0,0,0,0,0,0],"id":10,"left_children":[1,3,5,7,9,11,13,15,17,19,21,23,25,27,29,31,33,35,37,39,41,43,45,47,49,51,53,55,57,59,61,63,65,67,69,71,73,75,77,79,81,83,85,87,89,91,93,95,97,99,101,103,105,107,109,111,113,115,117,119,121,123,125,-1,-1,-1,-1,-1,-1,-1,-1,-1,-1,-1,-1,-1,-1,-1,-1,-1,-1,-1,-1,-1,-1,-1,-1,-1,-1,-1,-1,-1,-1,-1,-1,-1,-1,-1,-1,-1,-1,-1,-1,-1,-1,-1,-1,-1,-1,-1,-1,-1,-1,-1,-1,-1,-1,-1,-1,-1,-1,-1,-1,-1,-1,-1,-1],"loss_changes":[1.2166984E5,1.61648125E4,3.388697E4,2.6608594E3,3.3960645E3,1.1496858E4,5.3012812E3,8.5340625E2,8.585781E2,1.4833838E3,1.38748E3,2.5171025E3,6.820592E3,7.424717E2,1.0823828E3,1.3645435E2,4.9146484E2,1.8714062E2,3.0347266E2,3.6674512E2,5.932346E2,3.365288E2,4.000429E2,8.2489136E2,1.0058635E3,9.601747E2,2.4360625E3,2.9772852E2,3.0781738E2,2.511543E2,3.938125E2,7.455359E1,1.6672478E1,3.332422E1,5.6765934E1,5.6871094E1,1.5408105E2,6.3658813E1,2.2185547E2,6.0551025E1,2.7671094E2,3.309773E2,3.8286865E2,2.0645361E2,9.347591E1,2.1560645E2,1.3162198E2,2.780337E2,3.0272107E2,4.7249622E2,5.1941516E2,2.5384091E2,2.855642E2,9.467334E2,1.9564023E3,1.1846175E2,1.513706E2,6.0690918E1,1.04271484E2,5.042285E1,1.0987793E2,1.3862549E2,1.7926562E2,0E0,0E0,0E0,0E0,0E0,0E0,0E0,0E0,0E0,0E0,0E0,0E0,0E0,0E0,0E0,0E0,0E0,0E0,0E0,0E0,0E0,0E0,0E0,0E0,0E0,0E0,0E0,0E0,0E0,0E0,0E0,0E0,0E0,0E0,0E0,0E0,0E0,0E0,0E0,0E0,0E0,0E0,0E0,0E0,0E0,0E0,0E0,0E0,0E0,0E0,0E0,0E0,0E0,0E0,0E0,0E0,0E0,0E0,0E0,0E0,0E0,0E0,0E0,0E0],"parents":[2147483647,0,0,1,1,2,2,3,3,4,4,5,5,6,6,7,7,8,8,9,9,10,10,11,11,12,12,13,13,14,14,15,15,16,16,17,17,18,18,19,19,20,20,21,21,22,22,23,23,24,24,25,25,26,26,27,27,28,28,29,29,30,30,31,31,32,32,33,33,34,34,35,35,36,36,37,37,38,38,39,39,40,40,41,41,42,42,43,43,44,44,45,45,46,46,47,47,48,48,49,49,50,50,51,51,52,52,53,53,54,54,55,55,56,56,57,57,58,58,59,59,60,60,61,61,62,62],"right_children":[2,4,6,8,10,12,14,16,18,20,22,24,26,28,30,32,34,36,38,40,42,44,46,48,50,52,54,56,58,60,62,64,66,68,70,72,74,76,78,80,82,84,86,88,90,92,94,96,98,100,102,104,106,108,110,112,114,116,118,120,122,124,126,-1,-1,-1,-1,-1,-1,-1,-1,-1,-1,-1,-1,-1,-1,-1,-1,-1,-1,-1,-1,-1,-1,-1,-1,-1,-1,-1,-1,-1,-1,-1,-1,-1,-1,-1,-1,-1,-1,-1,-1,-1,-1,-1,-1,-1,-1,-1,-1,-1,-1,-1,-1,-1,-1,-1,-1,-1,-1,-1,-1,-1,-1,-1,-1],"split_conditions":[1.6015938E12,1E11,4.1766667E0,1E0,4.08125E0,7.177943E10,8E0,3.965625E0,2.6546055E10,3.5919016E10,2E0,1E11,1E1,4E0,2.9E1,5.1522863E10,1.9408858E11,7.046931E9,3E0,9.817479E9,5E0,3.990694E10,2E0,4.0666666E0,4.1316667E0,4E0,3.9586208E0,1.4539282E10,1.2E1,1.8E1,7.6088074E10,2.7375E0,2.56E1,6.2E1,3E0,2.9593537E0,2E0,3.9083333E0,6.4561705E10,5.0582467E9,3E0,4.0034723E0,9.805039E11,4.1125E0,4E0,1.4539282E10,1E11,5E0,1.0677711E10,1.3952951E12,1E1,2E0,1.3931568E11,2.2E1,1.2E1,2.2E1,8E0,9E0,2.9E1,4.241667E0,3.7790142E10,1.4019943E11,8E0,-9.761463E-3,-2.3365125E-2,-2.7859379E-2,1.6147535E-2,-3.9739903E-2,-3.0580373E-3,-2.3110022E-3,5.0165594E-2,-8.902981E-3,-6.1103906E-2,-3.1688597E-2,-5.4540355E-2,-1.0934005E-2,-3.3661675E-2,-5.3183556E-2,-4.1570883E-2,-5.9897102E-2,-3.8275074E-2,-1.5207832E-2,-3.9368182E-2,5.3921025E-3,-2.623394E-2,-3.014254E-2,-1.4452733E-2,-2.1559246E-2,-6.313315E-3,-5.0519966E-4,5.9884835E-2,-1.5818944E-2,-7.1102814E-3,5.7657546E-4,2.1893388E-2,-4.3275114E-2,-1.9220304E-2,-1.2425518E-2,9.235716E-3,9.886576E-4,-8.980212E-3,4.0309215E-3,1.6856506E-2,9.506081E-4,3.7912667E-2,1.0996315E-2,2.3669064E-2,-1.03486115E-2,1.8002061E-2,2.552104E-2,4.364111E-2,-1.0241693E-3,-4.985121E-2,1.3871297E-2,2.5862752E-2,1.7884446E-2,2.9696895E-2,4.0305134E-2,2.3563644E-2,3.2939427E-2,4.5807924E-2,2.8403386E-2,4.9105812E-2,2.5031492E-2,4.9176924E-2,5.622531E-2,6.45682E-2],"split_indices":[32,33,30,31,26,13,19,26,33,16,27,21,31,19,31,5,5,20,31,25,31,5,15,22,30,23,30,20,27,31,8,6,4,3,0,22,31,18,24,17,31,22,32,6,0,20,5,15,5,21,31,0,5,19,23,31,27,31,27,26,12,12,15,0,0,0,0,0,0,0,0,0,0,0,0,0,0,0,0,0,0,0,0,0,0,0,0,0,0,0,0,0,0,0,0,0,0,0,0,0,0,0,0,0,0,0,0,0,0,0,0,0,0,0,0,0,0,0,0,0,0,0,0,0,0,0,0],"split_type":[0,0,0,0,0,0,0,0,0,0,0,0,0,0,0,0,0,0,0,0,0,0,0,0,0,0,0,0,0,0,0,0,0,0,0,0,0,0,0,0,0,0,0,0,0,0,0,0,0,0,0,0,0,0,0,0,0,0,0,0,0,0,0,0,0,0,0,0,0,0,0,0,0,0,0,0,0,0,0,0,0,0,0,0,0,0,0,0,0,0,0,0,0,0,0,0,0,0,0,0,0,0,0,0,0,0,0,0,0,0,0,0,0,0,0,0,0,0,0,0,0,0,0,0,0,0,0],"sum_hessian":[5.9384E5,2.2132825E5,3.7251175E5,9.2567375E4,1.2876088E5,2.8015822E5,9.235354E4,4.0446008E4,5.2121363E4,4.0214375E4,8.854651E4,1.21428016E5,1.5873019E5,3.9297453E4,5.3056082E4,6.267197E3,3.4178812E4,3.1985988E4,2.0135377E4,1.8481908E4,2.1732465E4,3.858295E4,4.996356E4,3.3864406E4,8.756361E4,8.199255E4,7.673763E4,1.1600291E4,2.7697164E4,2.0736807E4,3.2319275E4,5.9462124E3,3.2098447E2,3.3443926E4,7.348848E2,1.933767E4,1.2648317E4,3.6062021E3,1.6529176E4,2.8176309E3,1.5664277E4,4.0215847E3,1.771088E4,3.681767E4,1.7652767E3,4.0580387E4,9.383172E3,4.9452812E3,2.8919123E4,4.941857E4,3.8145043E4,3.558422E4,4.6408332E4,1.4106602E4,6.2631035E4,6.2060315E2,1.0979688E4,1.2922656E4,1.4774507E4,5.0346523E3,1.5702155E4,3.5795835E3,2.8739691E4,1.2875415E3,4.658671E3,2.2289288E1,2.986952E2,3.338172E4,6.220675E1,6.8013116E2,5.4753708E1,5.268965E1,1.928498E4,7.9171606E2,1.1856601E4,3.4153815E2,3.264664E3,8.493292E3,8.035884E3,2.4359558E3,3.8167523E2,1.2934681E3,1.437081E4,2.8585251E3,1.1630597E3,1.1940777E4,5.7701035E3,3.444306E4,2.374614E3,1.699689E3,6.55878E1,9.187891E3,3.1392494E4,8.593387E3,7.8978564E2,2.8807175E3,2.0645635E3,2.7205242E4,1.7138809E3,2.9522408E4,1.9896164E4,2.698771E4,1.1157331E4,3.5114484E4,4.6973218E2,4.1428527E4,4.9798066E3,4.1869526E3,9.919648E3,3.8209133E4,2.44219E4,4.4999057E2,1.706126E2,4.387622E3,6.592066E3,1.2047328E3,1.1717924E4,1.3771779E4,1.00272766E3,4.0889285E3,9.457235E2,6.744014E2,1.5027754E4,7.573455E2,2.822238E3,9.9108E3,1.8828893E4],"tree_param":{"num_deleted":"0","num_feature":"34","num_nodes":"127","size_leaf_vector":"1"}},{"base_weights":[6.019375E-6,-5.149469E-1,3.6402312E-1,-8.256886E-1,-2.6615953E-1,1.5597409E-1,7.6837397E-1,-6.732481E-1,-9.940001E-1,-5.6568617E-1,-1.7610191E-1,-1.831372E-2,3.1281647E-1,5.1842284E-1,1.0219436E0,-6.957611E-1,1.703804E-2,-1.1080115E0,-8.149354E-1,-8.3605725E-1,-4.612516E-1,-2.895484E-1,-4.3528933E-2,-1.5785934E-1,4.3438423E-2,-1.8128948E-1,3.8871443E-1,3.3249953E-1,6.255968E-1,7.872916E-1,1.1098261E0,-7.5524366E-1,-4.513401E-1,-3.6396004E-2,1.014531E0,-1.1168213E0,-4.0763766E-1,-4.9005714E-1,-9.0227437E-1,-1.6358179E-1,-8.68746E-1,-4.8692545E-1,1.2730657E-1,-3.456828E-1,-1.9244851E-1,-3.5939285E-1,-6.733188E-3,-1.940532E-1,8.484779E-2,2.0584978E-2,2.972343E-1,-4.2008433E-1,2.5940642E-1,3.090229E-1,7.502549E-1,9.603566E-2,3.7987074E-1,5.210181E-1,6.932715E-1,4.6701285E-1,8.5880303E-1,9.6941894E-1,1.2118875E0,-2.1292573E-2,-4.0635083E-2,-2.6130235E-2,-1.1035311E-2,2.0976791E-2,-6.1538364E-3,-1.8663144E-2,5.6197006E-2,-6.1551817E-2,-5.383044E-2,-2.650622E-2,5.0279982E-2,3.7013594E-2,-2.574502E-2,-5.0702263E-2,-3.9946705E-2,-3.4526933E-3,-7.845479E-2,-1.2226775E-2,-4.5338783E-2,-2.8484566E-2,-1.6043147E-2,4.0761176E-3,6.5874144E-2,-1.8005596E-2,-2.3906818E-3,-1.0594426E-2,5.7531814E-3,1.0667497E-2,-2.5298787E-2,-1.5914001E-3,1.4606197E-2,-1.0686667E-2,5.5531235E-3,2.0923007E-3,2.5744295E-2,-4.1028764E-3,3.6821289E-3,1.3153953E-2,4.5842763E-2,-1.33349E-2,-3.5425093E-2,3.7926797E-2,1.0868399E-2,8.147563E-3,2.2645045E-2,2.6976481E-2,4.596382E-2,5.8801784E-3,-2.6276886E-2,1.7205704E-2,3.0700931E-2,2.498024E-2,3.641932E-2,1.794131E-2,3.5930526E-2,1.8469581E-2,4.4771437E-2,3.995767E-2,5.1470935E-2,4.076056E-2,5.0739612E-2,2.6872916E-2,6.1093938E-2],"categories":[],"categories_nodes":[],"categories_segments":[],"categories_sizes":[],"default_left":[0,0,0,0,0,0,0,0,0,0,0,0,0,0,0,0,0,0,0,0,0,0,0,0,0,0,0,0,0,0,0,0,0,0,0,0,0,0,0,0,0,0,0,0,0,0,0,0,0,0,0,0,0,0,0,0,0,0,0,0,0,0,0,0,0,0,0,0,0,0,0,0,0,0,0,0,0,0,0,0,0,0,0,0,0,0,0,0,0,0,0,0,0,0,0,0,0,0,0,0,0,0,0,0,0,0,0,0,0,0,0,0,0,0,0,0,0,0,0,0,0,0,0,0,0,0,0],"id":11,"left_children":[1,3,5,7,9,11,13,15,17,19,21,23,25,27,29,31,33,35,37,39,41,43,45,47,49,51,53,55,57,59,61,63,65,67,69,71,73,75,77,79,81,83,85,87,89,91,93,95,97,99,101,103,105,107,109,111,113,115,117,119,121,123,125,-1,-1,-1,-1,-1,-1,-1,-1,-1,-1,-1,-1,-1,-1,-1,-1,-1,-1,-1,-1,-1,-1,-1,-1,-1,-1,-1,-1,-1,-1,-1,-1,-1,-1,-1,-1,-1,-1,-1,-1,-1,-1,-1,-1,-1,-1,-1,-1,-1,-1,-1,-1,-1,-1,-1,-1,-1,-1,-1,-1,-1,-1,-1,-1],"loss_changes":[1.1067839E5,1.890359E4,2.909975E4,2.788914E3,3.663085E3,6.243433E3,7.447633E3,8.86666E2,1.0539609E3,8.859951E2,1.5703105E3,9.3225024E2,4.5083525E3,1.1790664E3,1.2020898E3,8.029707E2,9.613649E1,1.943164E2,5.7000684E2,1.921084E2,3.4227246E2,3.0660645E2,5.595914E2,2.915542E2,4.349837E2,1.6847046E3,3.002204E3,2.42396E2,2.653252E2,3.6372363E2,6.0696094E2,8.406758E2,1.7767383E2,6.772194E1,1.4344063E1,1.4185156E2,6.8685936E1,1.3064484E2,1.8218848E2,5.3918957E1,1.977583E2,2.9807812E2,5.1517845E1,1.5321143E2,1.232514E2,4.2186096E2,3.234371E2,1.7344641E2,7.963573E1,3.747024E2,1.308711E2,4.5912695E2,1.178891E2,1.7945088E3,6.6983887E2,4.850374E1,1.5074438E2,6.514526E1,1.9286523E2,1.21121826E2,1.3143066E2,1.2419531E2,1.6491016E2,0E0,0E0,0E0,0E0,0E0,0E0,0E0,0E0,0E0,0E0,0E0,0E0,0E0,0E0,0E0,0E0,0E0,0E0,0E0,0E0,0E0,0E0,0E0,0E0,0E0,0E0,0E0,0E0,0E0,0E0,0E0,0E0,0E0,0E0,0E0,0E0,0E0,0E0,0E0,0E0,0E0,0E0,0E0,0E0,0E0,0E0,0E0,0E0,0E0,0E0,0E0,0E0,0E0,0E0,0E0,0E0,0E0,0E0,0E0,0E0,0E0,0E0,0E0,0E0],"parents":[2147483647,0,0,1,1,2,2,3,3,4,4,5,5,6,6,7,7,8,8,9,9,10,10,11,11,12,12,13,13,14,14,15,15,16,16,17,17,18,18,19,19,20,20,21,21,22,22,23,23,24,24,25,25,26,26,27,27,28,28,29,29,30,30,31,31,32,32,33,33,34,34,35,35,36,36,37,37,38,38,39,39,40,40,41,41,42,42,43,43,44,44,45,45,46,46,47,47,48,48,49,49,50,50,51,51,52,52,53,53,54,54,55,55,56,56,57,57,58,58,59,59,60,60,61,61,62,62],"right_children":[2,4,6,8,10,12,14,16,18,20,22,24,26,28,30,32,34,36,38,40,42,44,46,48,50,52,54,56,58,60,62,64,66,68,70,72,74,76,78,80,82,84,86,88,90,92,94,96,98,100,102,104,106,108,110,112,114,116,118,120,122,124,126,-1,-1,-1,-1,-1,-1,-1,-1,-1,-1,-1,-1,-1,-1,-1,-1,-1,-1,-1,-1,-1,-1,-1,-1,-1,-1,-1,-1,-1,-1,-1,-1,-1,-1,-1,-1,-1,-1,-1,-1,-1,-1,-1,-1,-1,-1,-1,-1,-1,-1,-1,-1,-1,-1,-1,-1,-1,-1,-1,-1,-1,-1,-1,-1],"split_conditions":[4.4848323E11,2.7039583E11,4.1608334E0,2E0,4.075E0,6E0,1.2E1,3.5754623E10,7.882636E10,4.2423484E10,4E0,3E0,2.3536735E12,9E0,3E0,3.4644836E10,4E0,3.6982817E10,4E0,3E0,1E11,2.0397371E10,3.6112888E10,2E0,1E11,4.0666666E0,5.1522863E10,7E0,1.4E1,2E0,2.7E1,3.9694445E0,5.4793286E10,3.7791667E0,4.0324986E11,2.6061535E9,1E1,3.7652779E0,4.5946097E9,4.056667E0,3.6145833E0,1.1801427E12,2.6E1,3.5754623E10,1.461504E10,1E0,7.177943E10,3.990694E10,7.438558E10,4.119167E0,3E0,6.4709965E11,2.7039583E11,5.1522863E10,8E0,1.171248E15,7.438558E10,4.24E1,5.4793286E10,1E0,1E11,2E1,9E0,-2.1292573E-2,-4.0635083E-2,-2.6130235E-2,-1.1035311E-2,2.0976791E-2,-6.1538364E-3,-1.8663144E-2,5.6197006E-2,-6.1551817E-2,-5.383044E-2,-2.650622E-2,5.0279982E-2,3.7013594E-2,-2.574502E-2,-5.0702263E-2,-3.9946705E-2,-3.4526933E-3,-7.845479E-2,-1.2226775E-2,-4.5338783E-2,-2.8484566E-2,-1.6043147E-2,4.0761176E-3,6.5874144E-2,-1.8005596E-2,-2.3906818E-3,-1.0594426E-2,5.7531814E-3,1.0667497E-2,-2.5298787E-2,-1.5914001E-3,1.4606197E-2,-1.0686667E-2,5.5531235E-3,2.0923007E-3,2.5744295E-2,-4.1028764E-3,3.6821289E-3,1.3153953E-2,4.5842763E-2,-1.33349E-2,-3.5425093E-2,3.7926797E-2,1.0868399E-2,8.147563E-3,2.2645045E-2,2.6976481E-2,4.596382E-2,5.8801784E-3,-2.6276886E-2,1.7205704E-2,3.0700931E-2,2.498024E-2,3.641932E-2,1.794131E-2,3.5930526E-2,1.8469581E-2,4.4771437E-2,3.995767E-2,5.1470935E-2,4.076056E-2,5.0739612E-2,2.6872916E-2,6.1093938E-2],"split_indices":[20,32,30,31,26,27,23,5,32,20,31,27,32,27,11,32,0,5,31,31,5,20,24,15,5,26,5,31,31,15,27,22,16,14,5,25,0,14,12,30,18,32,0,5,5,27,5,5,5,30,0,21,21,9,19,32,5,3,16,0,5,31,19,0,0,0,0,0,0,0,0,0,0,0,0,0,0,0,0,0,0,0,0,0,0,0,0,0,0,0,0,0,0,0,0,0,0,0,0,0,0,0,0,0,0,0,0,0,0,0,0,0,0,0,0,0,0,0,0,0,0,0,0,0,0,0,0],"split_type":[0,0,0,0,0,0,0,0,0,0,0,0,0,0,0,0,0,0,0,0,0,0,0,0,0,0,0,0,0,0,0,0,0,0,0,0,0,0,0,0,0,0,0,0,0,0,0,0,0,0,0,0,0,0,0,0,0,0,0,0,0,0,0,0,0,0,0,0,0,0,0,0,0,0,0,0,0,0,0,0,0,0,0,0,0,0,0,0,0,0,0,0,0,0,0,0,0,0,0,0,0,0,0,0,0,0,0,0,0,0,0,0,0,0,0,0,0,0,0,0,0,0,0,0,0,0,0],"sum_hessian":[5.9043494E5,2.4452288E5,3.459121E5,1.0872289E5,1.3579998E5,2.2839717E5,1.1751491E5,5.7053895E4,5.1668996E4,3.1390766E4,1.0440922E5,1.08182516E5,1.2021466E5,5.9181242E4,5.8333664E4,5.5251906E4,1.8019907E3,3.1565738E4,2.0103258E4,8.744666E3,2.26461E4,5.6262555E4,4.8146664E4,3.3186688E4,7.499583E4,1.6006804E4,1.0420786E5,2.164172E4,3.7539523E4,1.5897165E4,4.24365E4,4.443585E4,1.0816052E4,1.7112836E3,9.070711E1,3.1173025E4,3.9271292E2,4.2608013E3,1.5842456E4,4.0564743E2,8.339019E3,2.1699695E4,9.4640375E2,3.5650234E4,2.0612318E4,5.022604E3,4.312406E4,2.888012E4,4.306567E3,6.880156E4,6.194263E3,1.038153E4,5.625274E3,8.538826E4,1.8819602E4,3.6124407E3,1.802928E4,1.4751892E4,2.2787633E4,2.903001E3,1.2994164E4,1.7867049E4,2.4569451E4,6.6012056E3,3.783465E4,8.261903E3,2.5541482E3,2.7275897E2,1.4385247E3,6.4522467E0,8.425487E1,8.109667E3,2.306336E4,3.6196585E2,3.0747072E1,8.3762856E1,4.1770386E3,7.606548E3,8.235908E3,3.810678E2,2.4579607E1,4.7930212E2,7.8597163E3,1.4480273E4,7.2194224E3,9.1237463E2,3.402913E1,3.4002887E4,1.6473469E3,1.938704E4,1.225279E3,1.02340424E3,3.9991997E3,3.9784297E4,3.3397646E3,2.7130488E4,1.7496311E3,3.9160752E3,3.9049173E2,2.344518E4,4.5356387E4,5.872006E3,3.2225696E2,6.778507E3,3.6030234E3,4.3565262E2,5.189621E3,4.237217E4,4.3016082E4,8.378281E3,1.044132E4,3.49208E3,1.2036052E2,1.5642922E4,2.3863572E3,1.3374248E4,1.3776436E3,1.6059608E3,2.1181672E4,2.3657827E3,5.372182E2,9.6322705E3,3.361894E3,4.0662566E3,1.3800792E4,3.5947272E2,2.4209979E4],"tree_param":{"num_deleted":"0","num_feature":"34","num_nodes":"127","size_leaf_vector":"1"}},{"base_weights":[7.72335E-6,-5.389731E-1,3.1853667E-1,-8.4138733E-1,-3.2620138E-1,1.669884E-1,8.3566844E-1,-6.5399647E-1,-9.8914224E-1,-5.385868E-1,-2.1992047E-1,-4.814321E-2,3.2937804E-1,6.221424E-1,1.0740533E0,-3.382313E-1,-7.127394E-1,-1.0915103E0,-8.285232E-1,-7.2775805E-1,-3.734014E-1,-3.4938273E-1,-1.1794736E-1,-2.5963223E-1,3.2454304E-2,1.4040005E-1,5.2619165E-1,4.7066543E-1,7.4965465E-1,8.7122285E-1,1.1513823E0,-3.69259E-1,2.3378819E-1,-7.294785E-1,3.428152E-2,-1.1546122E0,-9.954501E-1,-8.725846E-1,-5.0384396E-1,-8.802194E-1,-6.182114E-1,-8.556707E-2,-4.4506833E-1,-3.6657292E-1,7.9899095E-2,-1.82909E-1,-1.3549835E-2,-6.127869E-1,-2.0013502E-1,-5.825214E-2,1.4596543E-1,2.8377589E-2,2.2799595E-1,1.6696422E-1,6.0375375E-1,2.3633654E-1,5.291932E-1,2.8009123E-1,7.730325E-1,8.2895386E-1,1.0913559E0,9.8561084E-1,1.2111166E0,-1.3097512E-2,-2.3899633E-2,-2.7075304E-2,1.4668578E-2,-3.6538944E-2,-2.1762631E-3,-9.574281E-4,6.4157926E-2,-6.116758E-2,-5.540068E-2,-2.8960748E-2,-5.1187616E-2,-4.911884E-2,-3.775467E-2,-2.8443316E-2,-5.7262355E-3,-1.8285712E-2,-4.575683E-2,-3.3995688E-2,-1.866437E-2,5.6475853E-3,-2.1081187E-2,-3.0667419E-2,-1.6242547E-2,-1.959899E-2,-8.420064E-3,1.1014602E-3,4.8683487E-2,-2.1249814E-2,-8.16158E-3,-3.3990766E-3,6.0555027E-3,-4.856226E-2,-2.3627304E-2,-1.1186346E-2,8.7376E-3,9.2850823E-4,-8.6127175E-3,9.3805016E-4,1.1991181E-2,9.4772334E-4,3.5442125E-2,1.0367973E-2,2.3961766E-2,-1.7207127E-2,1.4486316E-2,2.4829367E-2,4.3702964E-2,-1.2588031E-2,1.4180027E-2,2.2293383E-2,3.0113026E-2,-3.5555925E-2,1.9904887E-2,3.1939056E-2,4.1522708E-2,2.9001797E-2,4.342156E-2,5.309518E-2,6.1747957E-2,2.16556E-2,5.1286604E-2,5.8597255E-2,6.5989695E-2],"categories":[],"categories_nodes":[],"categories_segments":[],"categories_sizes":[],"default_left":[0,0,0,0,0,0,0,0,0,0,0,0,0,0,0,0,0,0,0,0,0,0,0,0,0,0,0,0,0,0,0,0,0,0,0,0,0,0,0,0,0,0,0,0,0,0,0,0,0,0,0,0,0,0,0,0,0,0,0,0,0,0,0,0,0,0,0,0,0,0,0,0,0,0,0,0,0,0,0,0,0,0,0,0,0,0,0,0,0,0,0,0,0,0,0,0,0,0,0,0,0,0,0,0,0,0,0,0,0,0,0,0,0,0,0,0,0,0,0,0,0,0,0,0,0,0,0],"id":12,"left_children":[1,3,5,7,9,11,13,15,17,19,21,23,25,27,29,31,33,35,37,39,41,43,45,47,49,51,53,55,57,59,61,63,65,67,69,71,73,75,77,79,81,83,85,87,89,91,93,95,97,99,101,103,105,107,109,111,113,115,117,119,121,123,125,-1,-1,-1,-1,-1,-1,-1,-1,-1,-1,-1,-1,-1,-1,-1,-1,-1,-1,-1,-1,-1,-1,-1,-1,-1,-1,-1,-1,-1,-1,-1,-1,-1,-1,-1,-1,-1,-1,-1,-1,-1,-1,-1,-1,-1,-1,-1,-1,-1,-1,-1,-1,-1,-1,-1,-1,-1,-1,-1,-1,-1,-1,-1,-1],"loss_changes":[1.0077769E5,1.4030066E4,2.8915219E4,2.4927383E3,2.8890684E3,9.968377E3,4.2556836E3,7.362363E2,8.2695703E2,1.3336641E3,1.1261748E3,2.0921482E3,6.047633E3,8.516797E2,6.186758E2,1.1065381E2,4.1861914E2,1.8522656E2,2.7999414E2,3.3178906E2,4.7009692E2,2.774038E2,3.236413E2,7.1150757E2,9.1504486E2,8.139906E2,2.2191152E3,2.764209E2,2.626797E2,1.0060254E2,2.8201172E2,6.882788E1,1.49937935E1,2.9173828E1,4.90448E1,5.8072266E1,1.4309961E2,2.2189258E2,5.929059E1,1.4908496E2,1.747793E2,3.0323587E2,3.6894653E2,1.8189795E2,7.487374E1,1.4006354E2,1.341871E2,2.4499792E2,2.5640454E2,4.326306E2,4.7128143E2,2.3340292E2,2.4125806E2,8.8761633E2,1.8970996E3,9.307886E1,9.795801E1,1.3331783E2,